{"config":{"layer":3,"inputs":784,"hidden":[100],"outputs":10,"conf_JSON":"[784,100,10]"},"nodes":[784,100,10],"weights":[{"cols":784,"rows":100,"data":[[-0.8696964355868663,-0.158319040176119,-0.8821316147624999,0.748831839543408,0.02885037559697646,0.4211022555047051,-0.9861763570467476,0.9439853050972228,0.9299285973315902,0.5377886915755846,0.42519943666935195,0.7432993348932512,-0.48023866370794427,-0.12211441608312107,-0.9261744024301674,-0.5185778426662953,0.6577892385906324,0.9219498378836494,0.08565992829990468,-0.14991220989120027,0.3097482775991008,-0.33427359414768215,0.26039387642438855,0.3526610266086348,0.013279669026267375,0.658778827776293,0.6759978249451956,-0.7493602792362349,-0.08799072501412272,0.3124714850433495,-0.8204236993392772,-0.34279737041172215,0.052737555724648895,-0.7262521312164213,0.8178272575045434,-0.3110530595191168,0.1715696614975765,0.9086363012677328,-0.5190679486938331,-0.8242892174609506,-0.5128112824496917,-0.15631381860071153,-0.7503572719005176,0.0015828707298440412,-0.4671282867349916,0.7686633269460589,0.5153438505515292,0.21266230243188397,-0.9825337083464254,-0.7861476911746015,0.07386594244829962,-0.19604708057923076,0.38592778885402473,0.28949197420022715,0.7778922739051591,0.12002644250325148,0.07659703100366702,-0.8793077846985154,-0.6082009138844677,-0.15146532220104839,-0.4011653613772167,0.29772143541666984,0.19823378379548437,-0.790441499178049,0.4711461494806002,0.745514689937642,0.7703231789122108,-0.12928259363173455,0.8887915586438561,0.12817924430816016,-0.5371629786248813,-0.4208339717335907,0.8173054038192342,-0.43426139444577705,0.5190230741900809,-0.8510963107050606,-0.43158170498998316,-0.10217963729808187,-0.62139307308554,0.9652902021015404,-0.1630138740564233,0.15611187985931935,0.19668798411848962,-0.2699570558157211,0.5916945040562597,0.863995615789939,0.8663319362090189,-0.6926786277580446,0.025062464933368053,0.49368747341047026,0.037200167388611434,-0.09013385547061478,0.06341126640695766,-0.19269190510704398,-0.8184503940141997,-1.0438087150236575,0.2858354321209877,-0.7639137266118203,-0.7363091257648116,0.6756789469481066,-0.5961501573627088,-0.23948345078921007,0.4985812361281495,-0.8391448549598061,0.4888472363757298,-0.9644372744550355,0.2948287936543413,0.21031195509470474,0.3342710707917986,0.4310140708143433,0.4208190922272987,-0.6721809633831543,-0.236046029337637,-0.30425399411524773,-0.31056249218813065,-0.9252765936909844,-0.8372619665722468,0.01642278180261346,-0.39490343879522577,0.3108034755069761,0.40749441962409405,-0.5167193837388172,0.1575852397022308,-0.600415814597864,0.6320184169291346,-0.15245060953692566,0.16709513772029377,-0.5547787871285015,-0.3538670261080771,0.15805663357375774,0.37369218738102356,-1.1737926816488555,-0.8099295054504176,0.6183607296675249,0.15513350743229035,0.1976361836641055,0.06670710389467117,-0.15092220904126402,-0.5191490653791613,-0.16380572409798327,-0.920506129221207,0.4824627925680232,-0.4471812380994247,-0.34284348925760655,0.7585705938825817,-0.3701655202779722,-0.7804118815455279,-0.9642626573216101,0.05713960274072916,0.7984359980398043,-0.494061314424633,0.04034478095424292,1.0110102521079902,-0.8521170176736105,0.46555442976449657,-0.6229980290016026,0.7035784761683771,0.31179609773972744,0.06821860425408459,-0.18873131867791548,-0.5517083452224243,-0.7375388813164304,-0.3125077797897674,0.3982500055256844,-0.36821316602399473,-0.01702291877641484,-0.39931642175148846,0.3155065411537557,-0.8250494272647165,0.7624231435645029,-0.6522576109719518,0.3719982273117662,0.47659446733544636,-0.023983019633187566,0.9492896292081218,0.131873819024186,0.553478091494577,-0.5939922114854119,-0.5705208432997587,-0.5118561397547431,-0.030605794468194454,-0.37019583053669114,0.5133404853270334,-0.4604877081645376,0.346157682922707,0.5061786969080962,0.5714832709867571,-0.36701868627401735,0.5281645387514581,-0.2099839857817584,0.9044989015247293,-0.7254704700828029,-0.8839381906994409,-0.9378372629509821,-0.06826365196070812,-0.27840278984346123,-0.767581237848714,0.6091490946267433,-0.8553130837952218,0.11141788631844142,0.9087943862568114,0.33956986638625253,1.0781756211041569,-0.2606338313594264,0.4770501559498132,-0.043793213445151594,1.0860258878579452,0.7194419538982988,0.18707954275855598,-0.8724748440379914,-0.09133611287011953,0.011865412204081261,0.7244996356597594,-0.15849915581459792,0.3603033572983934,-0.23284664120788937,-0.5092614332489191,-0.446099744928681,0.5062626788756153,0.0482054246825632,-0.25972328712004517,0.5132008232704338,-0.7020788734389479,0.9388952236336869,0.7744666801933283,-0.9883117862635437,0.05047467135182137,0.5584495761640847,0.9666195350861775,0.0024823083349386358,-0.3796665232298392,0.40545253383896745,0.45028670225730993,0.40841755352264203,0.9119301273171851,0.3115874473928443,-0.09207514424217983,0.2855880540109807,-0.008484116163713461,0.7212132430540461,0.5318336601910031,-0.5909719519021973,-0.8116064301760251,-0.2049329670333556,0.5677164036653274,0.2057741379760587,-0.23987496682972537,0.13926126007711476,-0.2525842389874898,-0.6123180463536475,0.2634920737888943,0.7030155705718877,0.9426789182745864,0.029046094991712502,-0.34458836198851167,0.6707105908724978,-0.10551693977752497,-0.4278179313276213,1.2576836833822551,-0.5623076825128228,0.37946287716980165,-0.5053815789643624,0.659087099722956,0.5195527106450459,-0.2472631201640726,-0.6793859706068973,-0.03428415963368614,0.28028144869320415,-0.6051211182435644,-0.9907420465272131,0.7129538070382793,-0.05055614712495525,0.669838587948622,0.614823686190064,0.6650085310846897,0.40178412460159413,-0.07773239391667539,0.14386250884660318,0.29937453528407354,-0.2697876827653077,0.531284715683195,0.09089514798433673,-0.8153648901200952,0.80128898279218,0.7957807660438909,-0.73514795230973,0.3112233397317957,-0.2586528061108183,0.733711000816213,0.637323421754821,-0.04455835958978308,-0.4226574255453677,-0.44691680998862093,-0.6157672158374714,0.47382531941490474,-0.10556974454965026,0.7435584820795476,0.5483442497143283,-0.12173737943827082,-0.7447736580529204,0.049886335301163494,-0.6058222894958509,0.2357294397026101,-0.1680987909052416,0.3569969213202047,0.008184656567170509,0.18317564982838275,0.6654293289189684,-0.25946301705892366,0.808444401622299,0.016114529516129808,-0.9031219717130733,-0.7597530452503374,0.7978610028110417,0.10771248779198378,0.8477305521314387,0.45304491777866546,0.47813224657125125,0.24450079352257997,-0.6564872833330231,-1.1306663618845345,0.5796773474607967,1.0364254179390404,-0.4231723174582284,0.2969196476896732,0.29474338361105773,0.18367064944361683,-0.6715521930232201,-0.5146210122704572,1.0140349570696916,-0.24418025546404085,0.6428301697654207,-0.5617408192696784,0.1389821016174813,-0.5462050763028453,0.49061649440890504,-0.08395874542972413,0.8988306966649572,-0.75407764947019,-0.09050715085398119,0.5949604140553603,0.836795291105602,-0.4220523823546182,0.7101519787306777,-0.5169488651363544,-0.5537416771346507,-0.5399813281469553,0.35034190884560873,0.43110196405701734,0.09131829842218869,0.7602898589909755,0.3076484342353874,-0.02122303635372578,0.3619558855421379,-0.7666833134480014,0.6186133385736818,-0.33538852736361563,-0.39129788524145465,0.39863748469369786,0.9167057470189445,0.019399482504344957,-0.9448618051704525,0.06455438829008614,-0.9675596823903483,0.5736675329395498,0.022158939072426713,-0.25176431758251316,-0.25314870458136857,0.5394011488819801,0.5485457147121965,0.2796797066168393,-0.24125651183415522,0.19539395847735003,-0.17016305028409423,0.7243933020306095,0.271663466399642,-0.5821533485087159,1.1290888678584932,1.4266147561998668,1.3785532564724345,1.4895225717756135,0.8265256587695731,0.6272131201615431,0.5941417417159712,0.767724071938961,-0.5758159666274663,-0.037918539963830655,0.5400453773244922,-1.1329625889766923,0.6212152840839369,-0.5153813238458181,0.5382672112244533,0.6002461767461202,-0.9856185777622029,-0.39553277867205244,-0.3639369088955314,-0.2574631639626197,0.016093921490105835,-0.6881751481067804,-0.20856967424861733,0.7074361732151321,-0.8313174238049486,0.10903825876217907,0.3096643001489906,-0.0733051467418842,0.8988318142865943,0.2213409983128517,-0.06008395727832435,1.233243896548813,0.48803833359339965,0.4084140822088616,1.118347637181567,-0.5675160920968851,0.33517167909734447,0.10195335181776831,-0.33002198932949856,-0.14598397790058726,0.7263986274374673,0.3246664805049072,-0.5506587740766069,-0.1959241770194609,0.4710302160534718,0.11131688494080658,-0.6649657616092601,0.35259059363802137,-0.12466694181810384,0.600625285481632,0.7660717163462138,0.05289306761945428,-0.9486892657994558,0.03835229218500936,-0.018835246073733637,1.0218071283090913,0.4291595242410953,0.7755325212172329,0.3263172044666237,1.213311026278259,-0.3983745605980563,-0.3656364077492828,0.5881797556924905,0.3939928926105308,-0.23573039098363732,0.3074475333067203,-0.989503542800696,-1.0683469788909772,-0.7779846626308133,-0.6254777679483062,-0.9140104296781923,0.13364610155684045,0.9909734097222389,0.0995914906079678,0.610125291159617,0.8968222291757293,0.6021697845323952,0.18100305074504544,-0.39276197180156264,0.793436265352054,-0.8548268176169678,0.352521277821138,0.26496321347100366,0.3769616983180854,-0.1222666245623414,-0.26383972154282154,0.5360639458780186,0.7840805592205632,-0.3561497322310823,0.18561009099219974,-0.4877420939614544,-0.5348740052575599,-0.8159337554548927,-1.0423115155337086,-1.031613222626317,-1.1083801027479183,0.5359115921478633,-0.7061739318267136,-0.4229884421636699,0.8975784673653998,0.11184512431127894,-0.2642056241824177,0.050442854893543713,-0.11313296812745723,-0.7202003334456972,-1.1779641243179195,-0.2777684190764869,-0.7814728417398817,-0.42385656721756615,-1.1076780662349128,0.10376452266513463,0.09060533536801367,-0.3022016583410385,0.9784984856254405,0.2248063338082363,0.6291370662038365,-0.5654355610151552,-0.6071422100174655,-0.34060275809338114,-0.7015705112836973,0.47416502761225815,-0.14948440994104034,-0.4427212852662147,-0.7310788672195231,-0.925192768324448,0.39146007472892463,0.00090847523926854,-0.5589008704556625,0.14130946426851393,-0.6206813097500526,-0.8573256113072193,0.6565129763114372,-0.6968305515793364,-0.5209830163313663,-0.7146363800560215,0.0006706925922514438,-0.35468577742235824,-0.9133164395733289,-1.17043977052742,-0.28732287028465503,-0.1061313988572418,0.08330219694581814,-0.14443707600668065,0.4465932298534715,-1.4877040813994793,-0.352512976234379,-0.4107991244271214,-0.30452051114654427,0.22616591612982503,-0.1962341735760936,-0.9798817523647415,-0.36353422395173257,-1.0812618775047032,0.8939255754120735,0.9358542739420508,-0.44065853216257744,-0.8307908573118348,-0.7812881261641806,-0.38432592316649294,0.07149008300800345,-0.8645667529218448,-0.27903849775704004,-0.5408079894465752,-0.1917397658725189,-0.7609318256278258,-1.0408234845420046,-0.7456682694274404,-1.0771913417483463,-1.5171090005599759,-0.1758582467991682,-0.15922596305087108,-0.6405837283650824,-1.3717776785733213,-0.5848351934314501,-0.15918726907929592,0.14923353142536422,-0.6500692040642417,0.339230143730846,0.6650602935877898,-1.1931265893718184,0.3418472433262694,-0.1549259337083258,0.20333319775637904,-0.11700187213853927,0.4349342696463904,-0.3878370583911161,-0.784451718568431,0.6809091553304114,-0.4719912548646354,0.16105448475255882,-0.44015785816126535,-1.1622093331184036,-1.1932655115787125,-0.42647214673657446,-1.8210807672579707,-1.4114396047345716,0.35536866725018545,0.5175204655488473,0.22918267757159275,-0.029186469237291405,0.6411177607020626,0.6448868287365758,-0.4541281417780549,-0.7069006187586973,-0.08960226616825898,0.07784122367631088,-0.7443894442606692,0.7528917482716874,-0.49579130052871334,0.9233434180434262,0.4956211558512976,0.863650757462358,-0.5516126835614346,0.17133688041998124,0.3384519656186522,-0.6658336723652882,-0.7143648301919662,-0.5409164835996415,0.13641555203274433,-0.4875866701487166,-0.21329626292797302,-0.27798087774025143,-0.5305890226533811,0.4491051049871964,-0.5553228386429546,-0.21616906552972706,0.6896320909183109,0.13402517865367364,0.19513710624865432,-0.5801048299667024,1.1108224452144178,0.6135232854370984,0.2600123061201584,-0.805516123876723,0.5190399557325127,0.399940625987529,-0.4388619837541461,0.5477008319819203,-0.8741562386522969,0.3076394582751207,-0.960133628151155,0.03910901114585854,-0.39387217841181915,0.001900860771652775,-0.02314357884292906,0.746408232788633,0.15631228567389577,0.07085403067068584,0.42993920123001106,-0.6603158215372782,0.17635327801398612,0.7487858763961233,-0.7363815931092199,0.45983560544960483,0.2203456401671614,-0.3985917392162138,-0.3901420224708697,-0.38931017587478683,0.05508382855546358,-0.2855043429752513,0.3154032249483413,-0.3921996528291701,0.4768002094733742,-0.2974780223705391,-0.8167601574121082,-0.14899705236346797,-0.239627167842523,-0.13608629755631288,0.6067028632981896,-0.5412379068509473,-0.504331526380916,-0.09989000150376469,-0.6840007151065999,-0.6539717834612091,-0.008122650256731184,-0.9455964060596984,-0.6981489649687204,0.10430764991986609,0.6115853082757412,0.8804083095057548,1.1209859699136346,0.8711915858712729,0.95240681407929,0.13358471404217917,0.941457527020751,-0.45070983426089883,-0.469368620415671,0.0783122546965584,-0.23971885913832294,0.7023961751546883,-0.6782526653507698,-0.011469317549439778,0.20824065440487352,0.24676274436125498,0.5369849125263036,-0.4509490059539489,0.2941649346203155,0.41276299806256206,0.3331185669001429,-0.7570199595247666,-0.3114914507889599,0.7655166597258624,-0.4986454200500799,0.028235723658700213,-0.8521145488521346,-0.9505680159168608,-0.48065058404969985,0.6850841128208853,0.5928541559987448,0.8108541508359862,-0.29600957330766015,-0.21562965134897602,0.5808028169985687,1.0960555958582903,-0.4141905630214186,-0.5756464157926431,0.5482217403595716,-0.17740143506101136,0.9248590225540632,-0.8841961923762452,0.8086209708910015,0.023225775649813228,0.23715133292957688,-0.5004899938361563,0.7738804514503278,0.6541921084543781,-0.6531432680461756,-0.21564227932298058,-0.2811575749007783,-0.5524061942914054,0.4143493018113365,-0.8644710477414695,0.6055587875910746,0.6586974915166277,0.9010027339630013,-0.7946329166775367,0.2646147764240706,-0.6075875661171862,0.6136186953051378,0.6612106219391992,0.20896888221495952,-0.87845383618555,0.47427504609017684,-0.6472506128292169,-0.26994819222790634,-0.8558315186081749,-0.9545646684563125,0.44234452257817647,0.5877164495696496,-0.8827654515264269,0.7538754227238847,0.028417730748969125,0.5817216517596112,0.6526033615238603,0.8761245320456745,0.5298095892060745,-0.14298205295139468,-0.6332623439881653,0.4428789582036289,-0.6735818806430214,-0.6240034342083584,0.4325875398614827,0.9656598510172878,0.646097204348337,0.15633046260561492,-0.6166952884138407,-1.0628306814736552,-1.0413990280828678,0.262390695801513,-0.5263406094210594,0.53602663013526,-0.31162848092783246,0.6064919080701239,0.33481448510865175,-0.7485699123747444,0.694953844352999,0.005971758227009632,0.31076613725326757,0.8502745823942085,-0.6531223663258264,-0.8164691788920094,-0.8348604755275147,-0.054626614301319716,0.1851151987974431,0.5786671386509483,0.4663466365862676,-0.09287411509738965,0.4718728746497317,0.05063912561589737,-0.08084871976422886,-0.028407305354736442,0.8510620076686011,-0.8163958585269634,0.31893473717552434,-0.20068607139284947,0.0851305529882394,0.1305519391743595,0.7283979834628302,-0.2156425189333982,-0.03878878166346807,-0.24118867241916125,-0.7527412109165936,0.909769241353144,0.09649015662277052,-0.0490033701924591,-0.16614747161048696,-0.28329055332676417],[-0.19787225859162702,-0.43718490081675127,-0.7580839650700425,0.2358154474629657,0.9952899961916722,-0.6675066431533331,-0.48099619833078516,0.5482714113777819,0.3393928947215689,0.007150960974200636,0.5222362994761364,0.7094609080387974,0.9902208577112146,-0.3776306371478249,-0.17726029880934177,-0.1500297363385966,-0.6316703233382531,-0.24154758423565467,0.87800914415155,-0.10767568727933106,-0.7181468759505302,-0.6462996428867119,-0.6042835761239461,-0.5711116361542433,0.9774153929292516,0.01258036479326456,-0.7815370477243494,0.17938744285215427,-0.44987978760233355,0.09615382368197668,0.5703307808116261,0.4011838536471672,-0.8444517028313865,-0.6793553634611381,-0.8834073107768695,-0.4056703232967939,-0.9781120241672088,0.3890947808820573,0.2858571823010217,0.6900707586010212,-0.4872960685756642,0.21443036456342415,-0.5433291506597675,-0.07801431892756767,0.0373823957507868,0.33526154431407157,0.7927176926224712,0.29845077382545765,-0.8946960571754983,0.6581934237143867,0.8471746087970652,0.05426024961377035,-0.9718184248210106,-0.5630857826970906,0.20008473383707684,-0.9223673184974156,-0.9797981038036437,0.5668237096880527,0.5448546501601679,0.8675713160769596,-0.8623572929822403,-0.2736231987886126,0.27263678340516306,0.8283819105106983,0.17470813210022995,-0.32444891752643457,-0.8385324181415333,0.3590827289260341,0.9729254682853405,-0.10387515384496947,0.05036344786726309,-0.8035519319075173,-0.11718026129598808,0.19586797173593234,0.8273992946062586,0.24734675974883333,-0.5407277034295772,-0.8991786878974388,-0.027140848858125146,0.5772414241949653,0.8218993485514512,-0.08836916256585989,-0.025664017064630746,-0.5610766650270599,-0.7389216180397938,0.7857360964516201,0.4811926052116155,-0.6956073166008524,0.8150128587537432,-0.7306220132699374,-0.6125506562954887,0.6537303659628396,-0.5752017755436212,0.12421200892641855,-0.9263238458430499,0.4011460549737444,0.6333624427602983,-0.13747219398987315,0.587801410606075,0.8909305329505333,-0.4999647660649241,-0.4651210474043411,-0.26732182408700444,0.5147617094624339,0.47165990256562856,0.7296263497846613,-0.378383641533892,0.9646975643172822,-0.2645770255440902,0.9672570546390477,0.38779314036414464,-0.186065015505648,0.8418127311133333,-0.20001378401095346,0.21184690371928905,0.14462097208854352,0.279286517065572,0.4597938864174585,0.1841988310871209,-0.6554290581142138,-0.7321521143099939,0.5154200917129863,0.7205387488834405,0.9007978496492088,0.11339121500278534,-0.1166258173088508,1.3352469119072612,-0.013921519668460853,-0.588475356006482,0.4258171293742096,0.012160032166315098,-0.7033526959127934,-0.344400207312403,-0.7414880963144167,0.31294392594960624,-0.016937763960484072,0.10850000444973736,0.36630313521242547,0.4892265811714103,0.1425444291166427,-0.9686330933272237,0.35726370577059935,0.9749205219002627,0.5428777188442641,-0.23958623398360734,-0.33943671210577364,-0.19132369955130882,0.5423093344586616,0.987630304555159,-0.7835118556731934,0.11913215393844043,1.108563210682504,0.3106721343499072,-0.5691312516893056,0.27650096222571263,0.37447890669887257,-0.9155131994643935,-0.18328641870509998,0.6386820377289777,-0.527906272678366,-0.019982836799588767,-0.5623784010028869,-0.09371423250166404,-0.581760064473513,-0.09003427555549619,0.1848285616048749,0.7373645671582931,-0.06297649422703354,-0.36305777599463634,-0.7061165799096698,0.24853535317298003,-0.4698653489087092,-0.7788183936559864,-0.2554393745275811,0.4996055469778342,0.03884679892771667,0.6177872521641061,-0.5194467631279187,0.6500107982837142,0.09303854330343937,0.32324329892411496,-0.1224884757575572,-0.07425605817279479,0.5176003118698241,0.21500061223058534,-0.2738033455365761,0.8591548155977008,0.22188775144997988,0.5913338513923454,-0.3659450465369364,-0.5299837878279187,-0.7787747046415581,0.18860241426980495,0.28998573600039246,0.3891122379223843,0.6180955457306749,-0.38895003138736367,-0.46800761321025913,-0.2632696079127867,0.29453516082328324,0.4179640152483467,-0.3193835315842192,0.26463914647263,-0.022389483844854865,0.2815478055812831,0.5994375269222836,-0.04244433198008579,0.623651625934809,0.060976620635436365,-0.46237917081194213,-0.5402772921201735,-0.16751945388703285,0.9047823053068612,0.24367071179257832,0.8961554309697266,-1.2009245632537568,0.20491823026539796,-0.2870456526808304,0.019676041882547842,-0.6080922114564219,0.198343486277213,0.11391487525098037,1.00712331311819,-0.6393867612955619,0.5794601725230375,-0.8656778442704189,-0.02219104320544911,-0.5152463220202169,-0.14340019326043602,-0.2426909997160079,0.12459611193169148,-1.1481175255747929,-0.34894722746572093,0.29241327575503145,0.5168447833816158,-0.7122269961148974,-0.06114492997206772,0.001086314986227576,0.15937859376843208,0.1710251515829622,0.3978591765713093,0.7036784405169271,0.39727925992615276,-0.2521215370050788,-0.1170587010278988,-1.073834012187586,0.1835826406541194,0.19826116476764025,-0.5930187968019955,-0.02943174626600101,0.09359790869636203,0.04156326479366595,0.587018239459513,0.03830337281527335,-0.7177638527192054,0.3249216003216898,-1.2310418551370996,-0.0876152735446439,-0.4382076309929906,-1.2164424537099918,-0.6855678672150692,-0.4448643636172113,-0.741086660260539,-0.8439758377903964,-0.23908748936103544,-1.1438747219217171,-1.0834736911587515,-0.12750234343292408,0.734117032753987,-0.3344121015565812,0.26653822792877574,-1.088850880789907,-0.4747007903227506,-0.16922081479326231,0.8240978315992444,0.7112014444889301,-0.41783907298354367,-0.848099188192116,-0.17113009175993904,-0.39060151085480643,-0.16322209725213147,-0.5548232657812855,-0.3996322412767332,-0.9504455916446946,-0.2601504889604729,-0.512357645385849,-0.6160134950183366,0.6211612262710959,-1.052412317862436,-0.02605176589981011,0.046134002969629474,-0.12112291181817689,-0.5068511304800091,0.11195932520886742,-0.38171108730850506,1.468321566799804,0.8724489729014371,-0.7342856047785637,-0.12454329719636541,-0.7689091952864281,-0.7015665697788515,-0.383335146912133,0.7936368442940851,-0.5046490901683829,-0.30240864826843566,-0.4368381177579873,-0.049224922556424064,0.2765070553144453,-0.29078330909978967,0.5208929838091602,0.9603859024414343,-0.5389223840064241,-0.40644638472978856,0.45797770970280377,-0.18950844097266942,-0.5658208794099343,0.34989447076699376,-0.9640335683409769,0.35488927728012737,0.7926703124954354,-0.03218946615312999,0.28818305482370976,0.48988645795692587,-0.08725363954061942,0.03235821683736201,0.30593684030887947,-1.0036974187034975,0.19045192003144545,0.3298944871564937,0.9457158856817713,-0.3485831675551208,-0.7032455412947017,-0.6897643737031584,-0.823619945136618,-0.5880905625673976,0.33707108255618007,-0.9522291928495011,0.3648162278885089,-0.80411550639208,0.02476732803509206,-0.6421147051042098,-0.9093247154048374,-0.4129249541305971,-0.06658336163827361,0.5740207804201405,-0.5027681407507438,0.11892134738603614,-0.10211279527996037,0.11371541079331475,1.1408482167549467,1.0811826736039285,-0.12961561031222382,-0.7988666569988488,-0.5340121399312024,0.558675921023998,-0.10743901539145433,-0.5694098574157092,-0.5806464504650957,0.29807681055566027,-0.8072462938689547,-0.35723748229897606,-0.08177068118684534,0.8595539207312054,-0.8632209261608383,-0.7729860977391902,0.6576180262699431,0.28884711023880016,-0.10406440047187679,0.3399073900067825,0.6569507235521748,-0.616058556890557,-0.2208835625618889,0.2825887310869182,0.7137563176739969,0.9714384078769626,1.1450518129071636,0.6025379425672219,-0.686998182551361,0.9386987536461144,0.7140575474993688,0.47960668658891314,-0.38913325567959206,1.0048816369792999,0.6044490723128736,-0.570102900993333,-0.676026601865396,0.30625263295374444,0.8007376814840186,0.42165632721323754,-0.8016893030607611,-0.5866938812239494,0.077411974911179,0.45218302534945654,-0.6453213020473882,0.6382204001204372,-0.13089355565065683,0.8945360101176727,-0.008907936234725895,1.195305355854348,1.1050594922416732,0.9503068975309751,1.4424690777932387,0.2587864789477669,0.27823057458032885,0.14445634155943443,1.2279197625694123,-0.8507791675905446,0.45579220653917335,-0.8716828857657042,-0.05447902191186348,-0.3484054588232848,-0.6254717831440466,0.05764423134438284,1.1226503915611696,0.18427896300291274,0.6152154400210936,0.22476097628354674,0.7151726198575384,-0.9524668167501237,0.11757084081144155,0.4543984740090353,-0.04611873732574657,-0.5649443646576798,-0.44561371219951523,0.024024830421684667,1.3190834918495469,0.2802186044133759,1.2865942333687501,1.492428687252889,1.2640088106824237,1.2894147113168521,-0.6407610769729143,0.8010592515484359,-0.6108589940758128,0.5688235526835677,0.5804631029648323,0.7733860622754948,0.005873045330762602,0.16159639946346088,1.129931864869896,0.17402898123143412,-0.804410236930716,-0.7980604158630156,0.26145229980176493,-0.8797995740427705,0.6966536670434177,0.42205551678072256,-0.7127336515133412,-0.45423087466410667,0.6619872264037567,0.3885124983653329,0.6343274690079379,0.28469024998304904,1.1359468800541774,0.22127625553618996,0.02209348523967327,0.9291908774292186,-0.11827146150452579,0.3259390473482467,-0.08475297644493142,-0.025496146474072404,-0.4937740921541626,0.6206930620831181,0.3321202821037952,-0.08331697400098106,0.675789405203064,-0.35864419593624164,0.34290215774416544,0.8653575299874421,0.9449171457656287,0.5752345571374993,-0.8054947175885852,-0.10793164469326576,0.029659983039830327,-0.7172035371663987,1.0009431118197751,0.74132907011702,0.155849644437162,-0.3936246079365518,-0.5183367587498181,-0.31731294760631207,1.1647554665470468,-0.33212053591996554,1.395327855815424,1.6971869489109472,-0.04711553433763717,-0.758372346797971,-1.2565394867749413,0.44067426536968585,-0.06612428510276934,-0.18548524082658066,-0.4455070905319931,0.68137757503784,-0.5564926226531856,0.10605253607174556,-0.7809349183602641,0.41600533560549613,-0.1718435035021435,0.5343039432157893,-0.6744725522216735,0.7133847492339339,0.05712258259767828,0.8246267778656563,0.24689992991905602,-0.16709699198636274,-0.7466497162356668,0.3921806473587243,0.1922925829776007,-0.1799826110268042,0.7262060660771005,0.3086346374429833,1.0751447239953769,0.7515947338034207,-0.7903701835633623,-0.22384235477855338,0.2128326813717941,-0.930407664320121,-0.09977505961609658,-0.8272073107615193,0.027671626172375847,0.04385954915009264,0.2884590715674743,0.3417867810669878,0.878266491580569,-0.7404263757477835,0.9590057767367399,-0.022789188429820452,-0.6802252296402737,0.30067015632666527,-0.40774691340851327,-0.2100610277311184,0.5197741864610285,0.7933231137792986,0.2029023464283857,0.8745567963273875,0.16093010884116438,-0.7264087075502013,-0.29699876611587783,0.36918638083855554,1.0005420234442717,-1.0119603281735468,-0.24323966986036724,-0.5764390883108407,-0.7697478247818708,-0.7442178716361443,-0.5526927654255136,0.3963115314644174,-0.06538060089841376,0.20602120003780075,0.013077408379890075,0.5285720287018746,0.047237329744892115,-0.5632717760224106,1.0859830845499805,-0.8587283709549067,0.6992985788881383,0.2767264366007743,-0.25237602939097853,-0.17868807889492053,-0.7490785460961925,0.3486248350702072,-0.018451094941721553,-0.7011299880512535,0.11632822352924056,0.5228251211373982,0.9352395144630479,0.637095489946049,1.0998828313190263,-0.003076337087422005,0.3060607417919763,-0.990336368181299,0.6780361563559381,-0.8802289143866393,0.3556213424807981,-0.040508179125649225,-0.5517893811334695,0.4062984634891065,0.2594317868257242,0.36419612523805306,-0.22259569326488007,-0.514835571697349,-0.05735177700061868,0.8421870238373488,0.5185189603144946,0.7236276393420515,-0.9514145057730929,0.3734850975756814,0.7576395117479026,0.30099671669253786,-0.5378884241276517,0.6762321613311593,-0.4366391922184771,0.0437584638568275,-0.18291333009483599,0.9523044128857566,-0.44507712508401287,0.1490483752037996,-0.6227447188401684,-0.39549207640995343,-0.3782479141982441,-0.5080075334569165,-1.0338679484277442,-0.8360759407837046,-0.692314145185092,0.22527392563124382,-0.5677239058213298,-0.35132107376917526,0.6893576888560942,0.638718037666147,-0.383683031964731,-0.49757686686201785,0.854444274709352,-0.8812393421011225,0.639796418815353,0.8749505611562617,0.6587997964899248,-0.7565301008515046,0.034376319136425235,-0.6198756865331346,-0.016179968395024096,0.7770703026581224,-0.5978035699649856,-0.28122323166519286,-0.9933748760753857,0.6652429925921448,-0.5968537221561765,-0.09854609306144298,0.19672091988644852,0.8749791500725397,0.3338153226572776,-0.3355034991121005,-0.811236700842538,-0.3865293233312645,-0.41423613237025664,0.5218164742338695,0.3817109654268587,0.1750359865126148,-0.4805429583198733,-0.4829586802620287,-0.05764863891507053,0.6221305751648394,0.8017975135065731,0.07246335946713507,-0.6062370700823995,-0.5740222553193807,-0.9840399982125686,0.08582081907805394,-0.4869047725355323,-0.4087726998576875,0.6353549700307353,-0.3885300127040514,0.7104340525957615,-0.0518609210731,-0.11775942490073933,-0.14116831333335383,0.662509985449761,0.2101588748962178,-0.11468273501276122,-0.6498814438389595,0.3118357232716891,-0.6725709106940141,0.2609751892172265,0.15092266222261452,-1.0774153356109157,0.10396780564507285,-0.1588206226522511,-0.2294743895505289,0.827548135452232,-0.08441228322645875,0.6723701995532234,0.2252158384941976,-0.5716863767958186,0.393346335249056,-0.609957233132702,0.5872286954329899,0.10267704962560419,0.7665896598944184,0.19584714981735477,-0.5392332361978359,-0.2513020195635282,0.06467038406725142,-0.9150555697189994,-1.071210375348724,-0.3538710562243802,-0.27565003626516715,-0.11991997440018241,0.519471287025695,0.2536433755853436,-0.6964263080602026,0.712352565756158,0.19303151631278087,0.8376873082732131,0.8980351539656188,-0.3866994488480055,-0.26700642184717277,-0.6884748588130809,0.4947337006219067,-0.9071227952207541,-0.4646114027471086,0.8287455873822457,-0.9513865257515118,-0.7202812843189771,-0.9412878306872448,-0.09694393733563886,0.48493113320724557,0.4621978879938856,0.6573855600251844,1.0611293882447201,-0.7420497616444488,0.3112582611110004,0.8794877218705643,-0.38643923444129147,-0.3829272964700343,0.40089044416391895,0.3468062111683015,-0.6595960853081536,0.11619455328166794,-0.7844123412714871,-0.783283057728585,-0.08149980628140696,-0.1808942721549818,0.46362569875998066,-0.4232757194444156,0.9949041222880145,0.5620063284815279,0.7477695333760743,0.5932422163921285,-0.6827183395666255,0.4468234813115057,-0.6872375568566157,-0.861147388215837,-0.9337962211760779,0.4617976285783401,-0.6773357413234273,-0.761293072735332,0.4595614944551102,0.5883829318530782,-0.7288119625477997,-0.06604838880436507,-0.3644412214707304,1.08074154419441,-0.1896669883424831,0.8813777621450938,0.5290920452494354,0.5186301526913514,0.8350349233641283,0.7417032358696345,0.7033603645974492,1.0172836565419552,0.7962095339645608,0.9484919551646352,-0.4590708371042452,0.6830934959636618,0.16286306170688983,-0.23944985604877808,0.21836425512450378,0.709488655174051,0.8616787512278855,0.7237639093785123,0.4514756846431746,0.649093706798481,0.624149758069223,-0.74695296476029,-0.23666752392520332,0.5338466234875465,-0.07517337454393566,0.21060889327526852,0.5933406542486704,-0.9222728093833645,-0.4789130683932539,-0.863837053549265,-0.3323689692276355,0.44030805267600603,0.2513360484798293,-0.15637244426165112,0.920751695617912,0.17944938531276866,-0.0008485350494620416,-0.7792889166062213,-0.18132147604137702,0.797376950461817,0.6248740279042578,-0.30758586331493315,-0.41139793866309043],[-0.11621764965348508,0.8657364447702154,0.5316633395232992,-0.13715453376922732,-0.8254287948012609,0.20185126535648806,0.8838065024592887,0.776595519966734,-0.7896129485891235,-0.03865773054805132,-0.3607796067662804,-0.35262843694679347,-0.4263735184789048,0.6281471633229643,0.39490471753886813,-0.6392002980444353,0.6851984056291507,0.2558685376821451,0.7113324198734305,-0.1687851029506991,0.4667164328061243,0.10293876249500994,0.09773183006800007,0.6913944426804906,-0.8255851378408967,-0.9812507023793524,-0.6016144733384163,-0.5871689184717963,0.5406189528850796,-0.5204989288991899,-0.028153465456583864,-0.5401923904910353,0.590686345975534,-0.10303437799998913,0.2864353058919405,0.766413677384101,-0.10858127323983391,0.950356145619489,-0.14352854785301414,-0.9167276113405027,0.8306566861953272,-0.1739761727884926,-0.23750505100142683,0.10061363221782223,0.6121696341307581,-0.2422829945381747,-0.8856049259906966,0.2026516385761486,0.12688180833061377,0.9225684038988329,0.2101030680651672,0.7556907076013288,0.3001315978807174,-0.533191314434623,0.25963881131386113,0.3925296030743054,0.33725762234062373,-0.5980338880647331,-0.42545306367329355,0.5130747321615663,-0.00782424031937356,0.09580956375644677,0.9328577475807858,-0.7736246153961889,0.726654798850533,-0.1599335451527771,0.5805051714821198,-0.29023474830548335,0.8043152982570827,-0.5871814958319285,-0.4899751051878246,0.8682912735875182,-0.8680738966426965,0.2165774871469596,0.43000604793440406,0.2841798728442318,-0.4370613407771826,-0.8706131158072928,0.6513395419211803,-0.8409350148597896,0.6801418485806561,-0.2581188325978512,-0.23255179243151108,0.3284260167785652,-0.7465648194600829,0.29104588174871326,-0.31388291283514785,0.7039449199479554,-0.26326850356540366,-0.27052594974407546,0.36837864471470494,-0.3680094376763732,-0.17020807815188352,0.9274069964577094,0.6509333892223512,-0.6026602323041274,0.5510496437377265,0.15911194895933636,-0.4161765847078577,-0.11468692657445191,-0.13785142956224541,0.11730160402885252,0.28571954941898275,-0.3541582480610538,-0.7256082331925788,-1.017109163205108,0.25269718153132614,-0.7964617761812144,-0.31896131581571374,0.4215717198854869,0.9153198666530995,-0.508372957342426,-0.9038004179283532,0.5592034745254193,0.5393083124363854,0.08651848856941716,-0.7509064076069782,0.4992941119158806,-0.14190619357106354,-0.6822927576320282,-0.6353992580417761,-0.6096724980972815,-0.558225466825297,0.5701394510000224,0.029227474997130753,0.507687216927606,1.1882334327453405,-0.23178097951683474,-0.0057430963443343575,0.28925029623896664,-0.2470457350835603,-0.31729476475512425,-0.2975345502395006,-0.5827535081475825,0.058853639893025333,-0.1856163051794597,-1.0857033882116731,0.3988309411326486,-0.548534179983033,-0.44311753317618346,-0.8808954347757907,0.7400136749469752,-0.41942754278501726,0.01012719277328624,0.1694035048612346,0.3759892543335339,-0.7113692193889103,0.24730200350887774,-0.6398041642475748,0.9427104857387764,0.24896071871117806,-0.1339780247785727,0.7979377458492206,0.7790605698875637,-0.27412139275580066,-0.09706431212742145,0.6068735852928901,0.4838301632446971,0.3829936432031124,0.6461328520910902,-0.16106898197722078,-0.33622201697978865,0.8634865011268574,-0.29615708879080577,-0.7472660560809042,-0.9279275156197925,0.58311106259797,0.618438845313459,0.47360711644051323,0.4086461474665972,0.911501687477169,0.6273159734934219,0.10439265278420296,0.7262682324739674,0.5685576449629165,0.2061145060323322,0.010166874545526549,0.5793144782712784,-0.41709050044503415,0.8861669717632477,0.046537824299605075,0.332854722573142,-0.43936400932732106,0.9696892654275654,0.5669059202822248,-0.3709154803214631,1.0766530614068537,0.3690194870816984,0.24033220268562136,-0.41126661936801523,0.8391873583728621,0.6034151213358685,0.09748346485603232,0.5348709794202159,0.4469267992253097,0.31624028916981284,0.8590916434499658,0.6418305058167848,-0.0061033441363685425,0.2099895876827057,0.7499072788439858,-0.4541409523503907,0.23012757749904733,-0.28619434623459494,-0.3174726323576554,-1.0523044993907507,-0.8660047748761031,0.3873178557487932,-0.052046284739734744,0.6199906782693413,0.5962742453207032,-0.2127244444703254,-0.5270892150409064,-0.012541129635777304,-0.41263570276641914,-0.5632602677491441,-0.17341758786620629,0.8529473744785572,-0.3583740048124059,-0.18824162556565963,0.11326144335629733,-0.32774191871792496,0.8926761759302086,-0.2297100489690734,-0.2677921771951929,0.5228661667848905,0.27336347876036476,-0.2988368152497201,-0.7492865150327978,-0.3551845273611913,0.0032322639802081954,0.07003690545198143,1.016955877348357,0.46812931230628196,0.43497276125824663,-0.1718935996330917,0.24236477671035284,1.0658128196565841,0.16518979252849142,0.5447255597592009,0.30623113743647484,-0.10690700403367949,0.15761790904861608,0.9265446095539033,-0.5454612231670903,-0.393078445253128,0.929293717694773,-0.4459114535068574,0.5207836138426619,0.8296154078807954,0.05864970304372244,-0.2270462633698714,-0.44868756686526357,0.08977464335875915,-0.8662748765601334,-0.12926175953790353,-0.229940107202969,0.01298866243184418,-0.16970883579379606,-0.0820103664941546,-0.148486166789551,0.48258278089498785,0.18190829957219418,-0.5412471718472092,-0.8016459566220789,-0.15585283164176164,0.4935239385712329,0.3532544305722973,-0.3846762796440619,0.4756689477268171,-0.16327568734002787,0.2441182448770801,0.7055190473806814,0.28297507387030235,-0.2745684121010273,0.06223475061385791,0.22636032279438711,1.2023950128031269,-0.4083893988617012,-0.9574192773169652,0.32401745742307714,-0.7825325710248038,-0.02228432893952568,-1.013234714571836,0.2866001429808683,-0.4402099553745934,0.029844182671722078,-0.6791594941151993,-0.765899341927897,-0.6771094719685118,-0.993796542171516,0.2891303058892605,-1.1047956522989995,0.03599395664889225,-0.1840850459530635,0.025066049873383935,-0.7142808779016827,-0.5871136764452113,-0.4329028484457755,-0.2037041395131775,0.426126041192973,0.26344686619191643,0.6111615527212304,1.1079945605067631,0.3704878210247315,-0.17253944869173143,-0.0035551243512526795,-0.24186873139725365,-0.6610689083605781,-0.4879226823457228,-0.5304773728128795,0.31763863738513715,0.7927924870909506,-0.23874135689125525,0.48209123682737304,-0.19837025595596142,0.6914891595461509,0.06737541743151765,0.007030237752348014,-0.795422038640531,-0.8437322450656971,0.3634962752321872,0.5791217260084102,-0.17377786319249527,-0.7322093449911874,-0.9955053458663324,0.313383717894803,-1.4352361701502083,-0.5735107102705943,0.3519512527854249,-0.5257553411695656,1.3970468850049311,1.1327127505375134,0.8872682637597863,-0.7968866809198548,0.7584037370599279,0.41594208570823243,-0.05132846603244105,0.42671907408547016,-0.2855148942294527,0.755811189908167,0.6155473604920028,0.6785063550000364,-1.2220973147411358,-0.534544717246714,-0.7048933774232694,0.015017720153912,-0.6562259709154362,0.17485495819374008,0.166889918608768,-0.047190428217942844,-0.6638176101592986,-0.654731888043629,-0.6594618406141135,-0.9067212639129952,-0.6320137378752202,0.36828921811074344,0.06672779032642429,-0.5649982497092086,-0.15532700190609186,-0.4348876616383624,-0.12583379125206148,0.1588650494528945,0.2163620076625337,-0.5918806019718199,-0.29205576393661026,0.9876243684094609,-0.9888238896069094,-0.6231377551070061,-0.7081643644644297,0.29834839281244463,-0.985170464528005,0.4608952839781773,-0.48400481611297386,-0.6365634859984077,-0.539822345873559,0.8918026561900942,1.2371868061942424,0.1609312733245042,-0.5163633727768581,-0.8608325834843887,-1.2312589597167138,0.2620052107283095,-1.2547241914831782,-0.6356663187591775,-0.08375956056328512,-0.0431075569983502,0.16102433534842955,0.4629740587504029,0.5580117992081717,0.5707856026587728,0.3224051072033694,0.5236301170319457,-0.9005288611947446,-0.8405901495770228,-0.5275531034596102,-1.150706268192987,0.30101873777419447,-1.0682015496928368,0.2527501704679862,-0.2215506835114546,-0.26246510376985155,0.5487844528656404,-0.7151476677938091,0.7510730227973635,0.6302176900004168,0.38526978758815034,-0.8096981741018169,-1.0454678642165938,-1.0326048042686358,-0.6871277777676709,-1.6025482015174315,-0.32488592880799777,-0.5092509090304433,-1.0786443252518187,-0.7646243380771406,0.7097052351822087,-0.45803081039465743,0.26107414148222347,0.3515473660299786,-0.47534612479057503,0.26030575818226653,0.2820449897348956,-0.00855293354458748,-0.021854104342289626,-0.866410321248928,-1.001170270655923,-0.31291704352523014,-0.3041941576948496,-0.02625031917097374,0.6485958653314426,0.0870116840220678,-0.5416773881763157,0.973880749514494,0.668161778619061,-0.7089086512229943,-0.6327040943189091,0.21652292049034652,-1.0788349316889136,-0.9722035629696842,-1.4230365888147005,-0.6285117195404932,-0.9641956668350983,0.9227639738867487,0.7543672230280163,-0.883324413373976,0.10250754048888644,0.34091919756642763,0.9272978242451941,0.41027435424248526,-0.015514652856487138,-0.5297909109345735,0.3239010668072627,-0.03232292804212043,0.6082455772198361,-0.8272940286084539,-0.3477931732102345,-0.8851049116325012,-0.41705040087331696,-0.16948887107358934,0.8798463242688581,0.7728535914651026,0.37633973557174427,-1.2431745485253425,-0.651369988350007,-0.6031439719847215,-0.14647639081138422,-0.7462596272173541,0.2975980115551025,0.5801025795696735,0.09615235228660118,-0.6145254177226509,-0.19332781276515243,-0.8137594806481561,-0.6805955436002801,-0.03255035811043457,0.8003969035258731,-0.8497205547098281,-0.2855244528527756,-0.8092677775151313,0.23053352030454569,0.07050886758923444,-0.44422323521276474,-0.7810235421052172,-0.11429127097881193,-0.6425280283140707,0.408162537081241,-0.1429155716027483,0.6205826632038016,-0.17172047436387555,-0.2344392492784211,-0.6496959345823456,-0.14868107024443195,-1.2065414536008845,-0.4626205225114616,0.9095289628838255,-0.12148308806196194,1.0877354690550096,-0.19244032181132634,0.7434162509856586,0.6237601899906904,0.7678093399756961,0.7650028347729497,-0.1857411655716448,0.03938767683833103,-0.9422407129219397,-0.1813292139726513,-0.0797768494224046,0.34772335378949565,0.8210772759173076,0.7404010767627877,0.15525198889473388,0.014347992104550004,0.24522222700691917,-0.3941426007781655,-0.5218119527557322,-0.49342335994252035,0.15620701062567238,-0.9514624685129341,-0.74196995020647,-0.7352385746759428,0.30361234937671905,-0.12218845464655824,0.028828225987887687,0.148155107172897,0.24601998712883671,0.6912472083814477,-0.1311340854369507,-0.4614100983290814,-0.1767582710580163,-0.1446565664188331,-0.5155470052892734,-0.7140918650203794,-0.09809354364642332,0.10174043848264508,-0.31390302643800433,-0.2867470682445359,-0.23962084562553412,0.5971452815846868,-0.09689122915430365,1.1418432533543383,0.20662596864162217,0.17622995927854612,0.7165725337269739,-0.0929099983972062,0.40285733346912633,-0.10102579279876361,0.5596016474990069,0.48829982473848815,0.9843926074775368,0.7310372180673365,-0.1502301161033698,0.7399756819126874,0.14247247101002247,0.6795775928855726,0.25071473321388055,-0.38321875911578046,0.4396627146849626,-0.4348559279257782,-0.2034382417575041,0.5273664637073845,0.2947346336575065,0.8409071530479376,-0.5180480875070116,0.8151502369891163,0.49672498854508895,1.4758467984305348,0.834852868859038,1.4334942674444016,1.1572107516696715,0.8680064234175521,1.0618753937634016,0.3725270879762532,0.010558457712663758,-0.0050343098322506805,-0.508739950310425,0.18117328646044148,0.10543890960709768,1.1594167454207942,0.81168717524557,0.6415383605391194,0.23565804223944053,0.37998587330046846,-0.22887400443605152,0.49832139812286125,0.7985751693259044,-0.6223524265695963,0.5530543607649732,0.26510450710517397,0.8186556563729777,0.2810004512591043,-0.17563768129737145,-0.3572034587442531,-0.3317159869941409,0.5190575022861431,-0.15550900717437013,0.6103691541225688,1.021672420592705,0.6234567948357843,1.3495874586371244,1.291258841550796,0.05907878340704634,1.0397287218494342,0.44706576375839824,-0.1461360427365473,-0.046802513508900995,0.8106518192717795,-0.19858712700958872,0.6016299241203563,0.41340564778421907,1.3237072903035818,1.056919075354322,-0.3707304709339148,-0.7644087412837465,0.1711067090798027,-0.019634172098317318,-0.6116975176676414,-0.49402445597182554,0.28184114355796624,0.8532464312031739,-0.05369392669974088,1.200054928801038,-0.40097200708537295,0.32126942430191724,0.8909724008119583,-0.06638411292217737,0.298371636710822,-0.036989889753051765,-0.15220689697087547,0.7958453198252979,-0.24208296815113992,-0.03076373535213896,0.3918131173789181,1.196677879737376,0.04942616591296075,0.9260348105188392,0.9135431739702164,0.6959965529139394,-0.050367770069587384,-0.30649820985158355,0.22588396898367835,0.8645241808561546,-0.7554887064193474,-0.2151166546446627,0.5094850116531047,0.4994017163538895,0.43970811000592797,-0.7938875991971281,0.9537482435027591,0.1532563753011017,0.6058367851936103,-0.428031796533173,0.49358206264792404,-0.2848895813745068,0.3581448984657652,0.7999522773568033,1.2595564539130386,-0.054017020563761654,0.17804121002260734,0.8302852923361114,0.9939624550516599,-0.4141750162383539,0.9123755404834052,-0.5693259798984267,-0.13419771481187698,0.6353038172429659,0.5788404866365898,-0.5618408332784752,-0.2755230820473674,-0.8144349950559189,-0.9281398616271688,-0.5737888786463172,0.6646150734801579,0.7453340299175641,-0.2504760462620511,-0.5029522371164223,-0.03570730630902994,-0.9110186868003728,-0.8909736550527442,0.2490082402815743,0.002274936722336491,-0.3697167831357019,0.4256042159037437,-0.41883277159098287,-0.2248751490837313,0.6132980546461395,1.1012583992692697,0.1951871698680967,0.1876915583016974,-0.09053836015433413,-0.7169998902677188,0.8397002567700056,-0.12582336886971104,-0.4249563837710543,-0.9247444698141801,-0.6348892234738828,-0.35650363270415336,-0.45134817616871914,0.4595594349530525,0.6646983450517747,-0.37911131085566996,0.8364031893609771,-0.5576186504172125,-0.3936749924681218,0.596352452985948,0.0005919471421526138,-0.9991908434418613,-0.4869183701228155,-0.12359309322878671,-0.8355396086216187,0.36455641342284056,0.49951442453919365,-0.37997228034257713,0.006598277483817151,0.33721729901206987,-0.32354338841550573,-0.43989662238613475,0.6643630191507894,-0.3439084252017781,0.39148018391783385,-0.9490249129084005,0.6426886427431037,0.5296214265981642,0.1839227752876432,-0.7791179220629978,-0.778849720626879,-0.3458277009261448,0.18477399990706428,0.23786618469715454,-0.6573077757325383,-0.3159645558363068,0.6092822571504386,0.6066796334726184,-0.2914080090660811,-0.49520672258278015,0.18800617343373138,-0.6132158511392631,-0.20822271365055806,-0.3402053599246021,-0.06387129152613931,-0.3440483022236733,-0.2852101280404778,0.49078026326474056,0.05278606687236083,0.12585667115874302,-0.2546799478541389,0.4402932416687345,-1.0571939033060644,0.3758600188586795,-0.06346662239960642,0.5738288425952874,0.8988696945767457,0.3052177835754908,-0.3245802721327335,-0.3246291483824958,0.8323791152993052,-0.7443420711229556,-0.7243162005174799,0.6765839223594796,-0.5465156768242743,0.8199254851109674,0.10358584504898918,-0.6053750143274793,0.14683406662158432,-0.8089028335594509,0.8532580486914738,0.2613550795307994,0.2996298816490864,0.41857021348880785,0.5193681117465814,0.9480491844977034,0.3341950215126536,-0.8322465052218687,-0.6337677146591175,-0.43523331959149925,0.3751875823156475,0.6039916008673497,-0.3689944499580921,0.5068148377841271,0.014851201253370373,0.4933546195864361,0.03759124547129345,0.43667434244660586,-0.33120050018594205],[-0.11934308633549366,-0.6319172333264746,0.1846858610142658,-0.9076571230570265,-0.62401893557345,0.6461424291053746,-0.8146613114996257,0.24232621546615465,0.8337631276340445,0.2649535821705148,-0.325554473251887,-0.4985251232753002,-0.8664887202735863,-0.7818842899761396,0.7278724208501302,0.5987171808133451,0.4857516368098037,-0.04142827808501524,-0.7631281535119998,0.095245034422297,-0.3817995860767117,-0.653974533161295,0.8397831467074139,-0.21024706605047014,-0.9898878864719838,-0.8139235904535769,0.9053021093568376,-0.5261077784328991,0.8935310439532038,-0.8338802803824672,0.11081221055222819,-0.6975577498184209,-0.334786345308661,0.8972865070399038,0.5209322529694529,-0.05610964062912253,0.951351215979277,0.10693240438434555,0.6735149091967239,0.2977603274355034,0.48685105025362213,0.10052007014276369,0.2515490225473905,-0.038431804307494974,-0.9395771696345996,-0.9373382467907834,0.26405133016482485,-0.6547636073367528,-0.623595911399967,0.5444237503111873,0.17011259052087643,0.2829360781515676,0.2623480949636269,-0.9685411758444289,-0.7311050054919845,-0.10282181274663009,-0.005313556700829965,-0.08916166886514625,0.6742713106988404,-0.9084983708298521,0.818680518958301,-0.866575594600165,0.6989075599111304,-0.9906148428218919,0.1305665371410862,-0.7317456051476959,-0.8342336257257198,-0.12738645707743057,0.328602334809643,-0.7698219874913047,0.6577035197959078,-0.5515588531555006,0.44355897952271994,-0.017453797864939648,0.22496363595813534,0.9871024007842312,-0.5318214139691197,-0.8150993552074801,-0.8002673352616492,-0.4321278183507352,0.6288786780084314,-0.5362679728051568,-0.568691105308641,0.5693736853529077,0.44499765666639635,0.9386728687912145,-0.6955075052326831,-0.8326317737628146,-0.5417255020201743,0.7813698795600338,0.45178568836269734,-0.6238604097099115,0.9376369862299158,0.21292060320404574,-0.37732956257361666,0.041304014342932335,-0.5078148447622117,-0.615091834796936,-0.23602861128829514,0.7549930508173012,-0.8577162528156488,-0.7786657308537879,-0.7251122556197602,-0.643855629819605,-0.22321082133529285,-0.6200722090786606,-0.8646173721964485,0.21267699377807575,0.19382739978095395,0.8550671121728896,0.382368970924041,0.5767746430945955,-0.4857837442209626,-0.6319797066412716,0.8176052723808964,0.8161838375960503,0.8517979718116433,-0.016706467365784825,-0.15942475621030291,0.7245947439285125,0.4808237830066712,0.3806128829155962,0.5891427861424541,0.06756815030879933,0.7271180943050272,0.03033586986252306,-0.5685294886940726,-0.7448452013755736,0.26553096731319675,-0.8369612924841211,-0.4689383279975034,0.4712439628825004,-0.9595138777450223,0.8939817124192659,-0.23733465505903897,0.814593588278162,-0.8820259576607392,-0.03331538361753665,0.6783184216429088,0.32083568169736004,-0.30755932343404313,-0.17468125515719687,0.7052044217478793,-0.7783559161564916,-0.3053477885137366,-0.9841318459709549,-0.3950033367766256,0.6961879479851364,0.5404284496524613,0.027805161448195358,-0.12555623239324942,0.7032160741412075,-0.05056120801872618,0.8325650516408728,0.2898338057664065,-0.3935367001647977,-0.09996376182982983,0.4138530238957525,-0.9122564537113764,0.7917869644848432,-0.25446046325454325,0.2798019155037473,-0.6386474341623736,-0.1883370125233479,-0.21527659075764755,-1.004037391068864,-0.714324140556086,-0.34764064930049166,0.7422826173539379,0.010926752932387526,-0.8981690816863085,-0.357871458848133,-0.5608538965956145,0.3952084351216056,0.6060310105218902,-0.8260270716133343,0.5762284336953583,-0.17540669235133877,0.5000007453632752,-0.2507640037897695,0.36872802633736396,-0.0632958847655813,-0.4107833999490297,-0.2554123421605545,0.3753784819477543,-0.32085342194604854,-0.7302706320506779,0.5731202498136324,-0.333652147758902,0.28851588065660894,-0.06596399146094843,0.7849958875115927,-0.27136230825668184,0.021164819090596518,0.897945974300445,0.874485725803902,0.11484128435344222,0.8510594753565527,0.980054401561307,0.32074706634555583,-0.4516664434598919,0.6666569858748465,0.40916729115800976,0.6728092129849089,-1.0380563733958996,0.1327825757103746,-0.8927199934917776,-0.1283146873547599,-1.0653581957348814,0.36179788338083185,0.49877678006410997,-0.5725794046295107,-0.36359289652760013,-0.9463116730618789,-0.5069745193184703,-0.149800477807334,-0.3117788139323261,-1.1130343049377323,0.2503793007919532,-1.016675412151696,0.06146596657741635,0.6297722229689615,-0.12283990737023201,-0.9497496335687734,-0.19927781373440648,-0.9234314118693298,0.9427672779658502,0.8438057882820375,0.681986620598042,-0.49946935121502845,0.27778257581830407,-0.5871417003597228,-0.5842797623896228,-0.9032061335834441,0.22295249020424293,0.5277321541145639,0.08053570510843072,-0.2474656165871274,-0.23163476489727997,-0.9452423938039146,-0.7048051128099176,0.38887744084299275,0.09045902034689253,0.6737967846244917,0.5042650941208456,0.21584605905172685,0.4092774200548411,0.3529594486453481,-0.9493655221377398,0.06208000399323742,0.21926537784686356,0.7078223044431792,0.6424880156541114,-0.9165761674977566,0.820131622733425,0.302730659841932,-0.18985316762818244,-0.5347893315436432,-0.36572306924830544,-0.06069878842205406,0.3465131279988924,0.5376469456329944,0.2228917093878089,-0.021078710117104597,-1.1098258212542895,0.6747567456265304,0.038784105300762726,0.22699432540419223,-0.692522234513843,-1.145233153073127,-0.9732175982203429,0.3135641648287142,-0.3089958570691592,-0.9121032655984489,-0.7169220223397875,-0.2656814230424559,0.920749118472183,0.8795612419046096,0.08983035048489332,-0.7900203620199381,-0.8023306998197994,0.9304667531894053,0.864229585542097,0.4794538645751167,-0.9586502989849571,0.0705836768022993,0.44724495969781725,0.9466674978070457,0.5421671973149732,-0.2775878456099954,0.5816762460542476,-0.9303100555324781,-0.21295794811920393,0.19647302367246736,-1.1095435895869386,0.3258589739265594,0.43271725083735463,-0.33781186358778365,0.10916939488949935,-1.0501853900270652,-0.12259064247478363,-0.47962441081407625,-0.1970336118230492,-0.461383467002475,-0.2912368258592412,0.5728301146953485,-0.04295865666133787,-0.36993320944001273,0.8105006808834053,-0.25959850377485355,-0.9803722908679783,-0.5492053989149264,-0.5866428173948357,-0.3768334974869723,-0.5423680118201464,0.28623065660484365,0.007694970774431894,-0.6077031798064978,-0.3919421454099995,-0.5098217124657314,0.3811282040412243,-0.6354920197653774,-0.41664075972551534,-1.1293978107994977,-0.7899310688803061,-0.9460648763234809,0.6057447277745763,-1.1397445913691635,0.6788663506757109,0.6333116983923411,0.05965660268555682,-0.42810472938803423,-0.06509021939261168,0.04988459984146605,0.9655758666297275,0.44023465046470034,-0.9025265025952768,-0.8466990075281088,-0.7687621292707916,-0.9939069540371348,0.8400932428212565,-0.3437902704826011,0.6299110014426198,0.8674427871286163,0.1687949243629575,0.7208115535552279,0.7431308631581317,-0.03890368642574054,0.4393594213700105,-0.06557134971980236,0.4420632995306572,0.826215909689619,-0.4939358051309671,-0.5691174055434945,0.48915710704177745,-0.49753906740803716,0.640663933793703,0.14526167794868042,-0.8329545415044186,0.46077471292817107,0.32543920526881376,-1.0100967252358275,-0.8529479115291461,0.07978713338363248,-0.470701013092696,0.5408842731028997,-0.7140617879466653,-0.17398167125286837,-1.01955304805748,-0.0507919001102338,0.7974606305196593,0.20472887113125937,0.07949649922869789,0.48390873783757155,-0.16251966291454406,-0.781993586058091,0.7651349008479139,-0.06292043982780983,-0.14628638935518912,-0.4838157802753619,-0.8353413853125251,-0.16382291760836032,0.007856779113817675,0.052942927870571053,0.11567329048448605,0.55697222791129,0.009489801535381839,-0.590462724163577,-0.9511380106268613,-0.20484332425012167,0.5745807089870356,0.38465985251664603,-0.8940055278302628,0.5621862146677464,0.8799051681459408,-1.0229078120185195,0.3746849075357291,0.8126497553262555,0.6743758118632465,-0.7822613056326748,-0.24276945182984316,0.1054217341424688,0.44695305192253415,0.2861205670606582,0.7635614756187938,0.7365871665625897,0.636370177255581,0.408331738622331,0.2919945615809637,0.5658215861460706,-1.0659257331648477,-1.1047409395051904,0.25874546936375514,-0.3601755922214493,0.21982298165976283,0.5740272679660644,-0.10663034785922255,-0.521838394438794,0.8792708166527216,0.8337143908559536,-0.012842101137145626,-0.7636331779558855,-0.42501088872568965,-0.37748286743739307,-0.7355141736081927,-0.3098365117597624,0.38399707090355545,-0.3468924791548395,-1.08598053644676,0.32530737676971794,-0.7995711543747759,-0.14244830566499697,0.7329093249974769,0.46428556227974943,0.38289137306526655,-0.05370022928254757,-1.1412310427829617,-0.31692421693609607,0.43598336718240677,0.4944309928743179,0.2772649505051586,-0.33471979492668913,0.6485912104252876,-0.555423848026044,0.2386462133500106,-0.7689051713838257,0.9384676842901896,-0.5630602329153599,0.04221505686341938,-0.25345182784653175,0.0434475752978785,-0.6958980547192937,-0.458482336781866,-0.9465573515005892,-0.7956275796636972,-1.2004194012596385,-1.1483862900092034,-0.5470389969628279,-1.158949921385659,-0.7838702537137138,-0.8744200972444429,-0.6452546223982549,-0.06652297892220983,-1.1964430528836056,-0.48442693835730455,-0.9387943877460215,-0.9979431276889636,-0.3295082108256647,0.5466440418676234,0.1304840314644317,-0.6646252990339517,-0.5831778885802721,-0.7862896567521229,0.3913928013462566,0.7051364102117244,-0.5531446742139008,0.7464431858338518,0.4557725049560672,-0.7128026089393315,0.14986687562499623,-0.29458193081552564,-0.1614784484054571,-0.3980592895137723,0.25703505337358606,0.5291590145655651,-0.7461575568177147,-0.6817741492050947,0.48322028965153907,0.06671230920857073,-0.12647263633306194,-0.9569107940560486,0.46389578289608663,0.6983243171483076,0.4220426090666946,-0.2136483055686043,-0.9010762173074013,0.05930286510306204,-1.0399293934209797,-0.01578643720801596,0.2180934669881997,0.28307976371539056,0.2691707975188711,0.09586690597306682,-0.9736115418872944,0.3134421287745292,0.8411136717856139,0.6227312036892351,-0.14435394784224181,0.20097722111800118,0.2616528913187974,-0.5457548722823724,-0.5159301847870037,-0.5500608370919635,-0.1374714445734701,1.0003990606677253,-0.6142974956377852,0.039805901206827296,-0.6251903473630557,-1.2954916831542915,-1.125672590119763,-1.1284332928762837,-0.06174948766397408,0.36427295714425745,0.3635427413826055,0.4319122790791949,-0.8209875067699726,0.8071475807991074,0.21641826505686068,-0.5616931344661111,0.4982796990029722,0.44224361982218435,0.19031815950198885,-0.27324317356400746,-0.6084320080773394,-0.4915373233519049,-0.2429716211246362,-0.24361972686704864,-0.4106001228007666,0.36610590689586525,-0.34044037102081776,0.6740206231491133,-0.39205024797974997,-0.30866555600221673,0.49607711255689235,-1.0905444526808,-0.8666497896957909,-0.3293741031954292,-0.828603071449606,-0.7982987396843598,0.30749266994805313,0.5364383898751565,0.015783869990890462,-0.36579754536725195,0.16636923904392908,0.27669498191636804,-0.8201275626255609,-0.23337024454163313,-0.8135481167366009,-0.9017440474181213,-0.010296334493101803,0.7897745643931351,-0.09703943611732967,-0.3139564194712384,-0.5635102270021825,0.11445336857641114,-0.9796253001929023,-0.8362835955118627,-0.27327544418147426,-0.5861800011724333,-0.008507349188704565,-0.09514546842475559,0.023797816593786793,-0.56193599792935,0.1701263331146444,0.6215382677205105,-0.7268721383023057,0.3292642852497028,-0.909773839075903,-0.6850491206046272,0.8464268824887763,-0.3576776548147869,0.5410765269930636,-0.9104837662119193,-0.9798577729068033,0.17967973277884164,0.036191413607327194,-0.7966990240930762,0.21773628364755176,0.651355010306075,0.45542360777071966,-0.1933324694084684,0.7120036251950114,0.28717602004830195,0.8430658183354556,-0.970910238459908,-0.9142113981670923,0.22865046754228494,-0.053128646836651,-0.5794182816865642,0.484652939888136,0.333430710659945,-0.6104277779342179,0.4082815754211419,0.0661466100913766,-0.22109011418313995,-0.4915600602692138,0.46619755225343434,-0.23218688633673992,0.3625307997255482,0.048233879787630426,0.8092806512692404,-0.8262365334578357,-0.41948926929928837,0.6608573319949181,-0.5219813183063098,0.7820583938501924,0.11828557315067345,-0.44955472150139497,0.9616569954001616,0.8802529770596488,0.1917649175489769,-0.7122771017872814,-0.7681294439566252,-0.208058426657727,-0.7943244126364836,-0.36557382908603864,-0.4097444711888664,-0.4909270545886382,-1.0900602534675385,0.26085055962376996,0.47769818801338637,-0.050654670073821094,-0.2646512436502104,-0.035116503369115294,0.7369311273831639,-0.842418701349491,0.11954485154432987,-0.8116630406506686,-0.648532843441962,0.023133951348338948,-0.20478654728892257,-0.8293451498286349,0.5815852820785222,-0.14700557610173998,-0.35662104879572765,0.34803312238622774,0.6969849525398489,0.21590754941635593,-0.5265666296602793,-0.59582243452437,-0.2083467237810264,0.27784901112157445,0.3832574634110625,-0.7323376428059438,0.437742943189242,-0.964818584515435,0.3081792860277309,-0.3552879985893266,0.1962914798895072,0.5632505610056802,-0.6898195079223874,-0.08604189119421934,0.5918381556051366,-0.813900383725212,0.8030695885369388,0.0040238372425074114,0.8311886448054661,0.20918433758499386,0.8958732528299842,-0.9736614228710875,0.8157206605970395,-0.5935392960201336,0.1251544015991867,-0.982884259441777,-0.5833181907152787,-0.15420639396988658,0.7620159778648445,0.3993598792420333,0.05478931925562171,-0.01816354537109321,-0.17749614158196805,0.11141167159452281,0.7060359957321729,-0.2927552716730652,0.4756128834656148,-0.9944905103953864,0.513821772413415,0.24803011074373338,0.127398018074524,0.20097796085332123,-0.15093228565991862,-0.35542621845332745,-0.8672108048133051,0.3552931614699061,0.5298632199203173,0.16234907289455944,-0.47647402410656303,-0.5528180260456789,-0.4829191295959641,-0.5626354557441104,-0.695125255683775,-0.29702789239554084,-0.4398063032823164,0.22155414489690317,0.08182507514239151,0.2545452168858566,0.7504246152010953,0.6820046359191327,-0.9289202574006341,1.0284402903729961,0.6748371820640527,0.021643022826538214,0.578754389695557,-0.14986927213428838,-0.1758068191986185,-0.6004784268758876,-0.3265105754107009,0.936968424143649,-0.6610959360959816,0.9912195467613527,-0.20860650470923509,-0.9404663160526596,-0.36594377850009696,-0.34658582169803476,-0.017018730972273282,0.7194094308560316,0.49190424225079327,-0.9959270575584445,-0.38859577792987,-0.9289545356917628,0.7148410834892032,-0.6178579810043094,0.0024762536234603076,-0.45974473122129456,-0.8805730447305521,0.2744632631453421,0.24066474761376566,0.7314270624951585,-0.17254638575993064,-0.18290822749905292,0.9458886788937105,0.10695603206181728,-0.15794645472813806,0.8743106251122007,0.4053477199732024,0.16163959271351808,-0.8851012262564771,0.41667909643146656,0.8815036003441493,0.8911676165525394,-0.1782817066902205,-0.6854008850596817,-0.7713088155477607,0.6350849410824988,0.2729494640524187,0.32000897809526163,-0.21053442538079067,-0.9767310354858656,0.6213852649280833,0.9362819875790789,0.3444361945292547,-0.3650888305318834,-0.5560341878187918,-0.09501514786017155,0.3313810734220308,-0.5058328635630638,0.5848807732811175,0.9451554512953211,-0.8046486197667893,0.7032600206954215,-0.3650489718017929,0.2696574480174106,0.3918718981282573,-0.005902705766033116,0.189311469322801,-0.4126743707493961,0.44138942497126676,0.7698934596062076,-0.7012101707251642,-0.8471258012314721,-0.7684204024449344,-0.30693203698274985,-0.8273815313713571,0.2010660184128016],[0.1476559823977645,-0.4741316383922913,-0.1096195340925744,0.7262474782390085,-0.16438790469880155,0.8492856115904448,0.6400274557595953,-0.3325172045455033,0.28743139983684257,0.8401601660994571,0.4640821697777369,0.22197265786495762,0.47972194034622767,0.1923823072312698,-0.8370591966774612,0.21253080159676913,0.16029293154137164,0.7049025515733545,-0.882213993901154,0.937865189009965,0.7549404991490503,0.5532620525696825,-0.4387034555836617,-0.68110940948508,0.7642617993493745,0.9934689780954074,-0.6842727682958096,-0.5869059011239672,0.6709309921915869,0.3436003230157008,-0.9252096206597926,-0.026946694367735505,-0.5926043829184127,0.49601069746360454,0.9251556221060456,-0.14350082203112194,0.6303887901191927,0.7963017918736148,0.22971312224596133,0.5620795164110995,0.03769741700463189,0.7408409719744935,-0.039038070900987376,-0.43015330579831634,-0.046919053700335674,0.51010359927986,-0.4465921725436441,0.9530198148015913,-0.7896739968799664,0.8822991093686162,-0.7885360089220582,-0.5519183657669343,-0.9680926881562681,-0.1196611529067738,0.39579919105736444,0.721663724669837,0.763272549365313,0.46561221656012824,-0.9066907338593875,-0.05676675621914069,0.41073341099849,0.8238930209029516,-0.02511378190747128,0.4197928706076617,0.3239027886472848,0.5205126771788805,0.0671186112917735,-0.09253346200613198,0.25169728743847875,-0.2120023501271836,-0.6993084786116439,0.6415752743100166,0.009867368519088482,-0.8749892548542136,-0.6014772995158808,-0.8354580290254279,0.11055115392431648,-0.7194260185043995,-0.7251975941762118,-0.0162571940280485,-0.9594540087922435,0.7458122963248585,-0.3624525510493472,-0.6183005221427358,-0.19544789423352943,0.2878118736151523,0.05204453652667562,0.5699378230166092,-0.7550927174879314,-0.43698919849909434,-0.18592371045910314,0.8548269933245216,-0.44500836958212675,-0.8807711864051263,-0.5621664947525212,-0.7291502928597017,1.0662026385342949,0.6485426966360781,0.5208630743954845,0.14160588256214132,-0.11754224491428175,0.3068985192229095,-1.1716474476108985,-0.002821781445444462,-0.9266468190357943,0.19357565064505095,-0.8554163054600902,0.35340032433322405,0.9174136760353212,0.808673393841934,-0.2052518382209217,-0.8825577627112353,-0.40141674350072515,0.6802531879083574,0.4659031150145492,0.36123476368759533,0.25793275902385804,-0.8677861274895782,-0.6538114221390731,0.575132401810844,0.042989442795926126,1.1032368135763237,-0.0436986038936965,1.0154222544946392,0.12458019595593438,0.6299168280283265,0.837789747109657,0.3952326439487986,-0.6456438306891096,-0.4658747716124536,0.5398038042456325,-0.12722722454536708,-1.1990490810442986,-0.4438180884678716,0.20537471057120793,-0.1870081337899319,0.31723893674852505,-0.8884295677181082,-0.578012229100882,-0.34318941330685676,-0.6606348050765638,-0.577232464037533,0.8870026034935563,-0.975177203682702,0.07004543136239028,0.5261581151561475,0.63701577753619,-0.4582276351547699,-0.3785740917750633,0.9978483132812067,0.6123909867116645,0.6309017187414281,0.10660762572518613,1.4130061223568497,-0.6728475104940249,0.013938698937245789,0.36164864942362523,-0.44925131343763847,-0.41062907049606806,-0.10782037824121284,-0.9924640745523378,-0.5191245675508438,-0.909187934798575,-0.1199408014529205,-0.001210294494880968,-0.5998478219201883,0.7079866354988766,-0.7259585205821901,0.6289862962941573,0.06686211705448904,-0.34384844959639915,0.05112778419345905,-0.06398205341237118,0.5992906058783484,0.852187616391846,1.1106350330378554,0.6223638473795009,-0.5690456933188007,1.0862984997420346,0.9344960578915287,0.2277870353030213,0.697440652651937,1.0393188020179467,1.2881777526156588,0.3519235592489741,0.9151602631915986,1.6172345496773064,0.3283261209967871,-0.5578205919683907,-0.04620252279909937,0.59386686294085,0.32425145292804824,0.673499214830426,-0.8787408794651721,-0.5392996968872333,-0.16933063895360098,-0.09270372092876582,0.8077238909581578,0.15188329378694443,0.24300034865107203,0.7961443819916115,-0.6664273000016004,-0.4493876273940569,-0.5466873697533127,1.1136666952878607,0.6836355986558558,0.9403034767756978,0.4438498754608661,1.4386321049289772,1.1466188278543712,0.4190447486123327,1.4692793834085776,0.7039040266127227,0.442169546839207,0.6289331037873355,1.4610558290667628,0.31029386370997897,0.13559419411650186,0.1171321015239053,-0.3099730088039876,0.4237285216905914,-0.32834936895561095,0.3890050234917972,0.27386812561481705,0.3155009587084968,0.27676488543285616,-0.4673600585503086,-0.29065812532159946,-0.3913304947299408,-0.004120177365178228,0.4927541847867578,-0.5858514066991249,0.34281588612282066,-0.07368420064071142,0.3260643621032129,1.5009143777988436,0.5414590854140878,0.3468666761391638,1.1833694868376587,0.7407677314236976,1.607881740063151,0.24459736780236807,0.9991617709006859,0.7049559364090044,1.2386615009895932,-0.36103382748080426,0.4602013934064449,-0.16644213681775577,0.1514104618836158,0.9836995552102561,0.3368527441294485,0.19405391625988133,-0.5322409301321391,0.32132268062170494,-0.6799467935638792,-0.7761936693024948,-0.9502502108563662,-0.17985977160863542,-0.4748317322926116,0.13230324175367258,0.6688038795313409,1.0941758418307033,0.38257512593330967,0.06915343331199102,0.7160231848768478,1.0793782741385691,1.5848451972887931,1.4372434819007809,1.132650016830021,1.1766958845243856,0.9856715639544236,0.24574973211057494,-0.3126219604443013,0.9550728875161564,0.9821058981448608,-0.3082028998728059,-0.1543881575975094,0.7087710500942213,-0.2490799915649971,-0.4608574270255153,-0.8171070478757472,0.7661756283684984,0.5562184367403883,-0.5849287484555601,1.0405536220369311,0.392595622570169,1.1317100393944575,-0.5499021278942822,0.43552619284393157,0.3582665764257619,-0.04531704727770283,0.1287063775005917,0.34998422042920396,0.819764994809521,0.32848518303820484,0.15402580682133954,-0.42002892078262477,-0.06110526216067461,-0.5676438063041394,-0.3869074967011313,1.3171693718004798,0.5227142016113592,0.4192149385911031,1.2394762042442675,-0.47670657332394106,-0.561868181850527,0.21110646381026343,0.9775551335781553,-0.51741566519726,0.2679712156250072,-0.4290323023260632,0.40720263706172377,0.02319048019440185,-0.41948590649793344,0.3204853680614416,-0.88359853563012,-0.01348044003748289,-0.4282022112813216,0.34269783711015217,0.2354841878294939,-0.9088107064700162,-0.4576284533631082,-0.41653230860441426,0.28297787303785793,0.36777454664157894,0.6588304057843998,0.6518837369012159,0.030232770551483015,1.143548261246684,-0.3718972173317706,0.09853595710000376,0.3590605576706303,0.8424216036633823,1.018343397786255,-0.539693820095131,0.9113093724135842,-0.07774413221729236,0.45826851653964823,0.36356003220747346,0.9282758745252269,0.19660406351114576,0.4436595262182906,0.07650421242554963,-0.5493035540568325,-0.8601277633140048,-0.7567831617070214,-0.6845448571163624,-1.4158420057275387,-0.12540400640551386,-0.4904282232860182,-0.6572289865575351,0.4172474109473102,-0.6455263919058212,-0.55213173062119,1.1568091053446241,-0.09703255244871989,0.30080432770938637,-0.341290948196535,-0.6002690415763274,-0.005915244702416146,-0.47064380515913296,-0.8570512220861506,-0.9783836911660374,0.10816346299322362,-0.3508687888444885,-0.4763456610576526,-0.38134745244641793,0.21893213249018273,-0.6148404122713921,0.3786423977470763,-0.8712243871941939,0.4266663499986366,0.30543596956082714,-0.1392394919001054,-0.4316626684848723,-1.279907540104105,-0.34299523173055557,0.25390365932095577,0.4089167639106454,-0.19519058162973563,-0.42600996806061053,-0.4350579512879374,-0.1760161703242653,0.6288330730469767,-0.2858171333637242,-0.8128158792383847,-0.10691729084007022,-1.2277010049014727,0.24840694809385067,-0.7896062089028408,-0.126740602887757,0.09804781269475259,-0.38210721512911644,0.8562022433144942,0.03158373637208989,0.09489309057467704,0.24727306582486133,-0.1843015036351498,-0.27428943454350846,-0.7969434178742845,-0.5755584131491293,0.030457343291752908,-0.41994676906886547,-1.256884680743817,-0.7230455372516164,-0.37836147985174823,0.4066219547188406,0.029712972761657477,-0.07122248546531462,0.6460919082730626,0.5344312356806552,-0.7211007634247317,-0.32778006842365354,0.24313852584911702,-1.3655576176066724,-1.0925371826703099,0.14924435289721683,0.9270686180015769,0.6649180305374619,-0.4795333068973599,0.9302249793875847,0.32181442718446623,-0.004074135363532072,0.8043455807464149,0.557104318763168,0.23559329468953963,-0.49385182989841236,0.19744577701310362,-1.1024355039564326,-1.3126087217794118,-1.149080647548214,-0.9334808267207803,-0.5567504550433772,-0.1940033360687127,0.043636609333983264,-0.040666636762047244,-0.7523352618522359,-0.5323123742296372,0.07276539672479573,-0.7399083214579687,-0.8577378097009779,-0.3263455277409661,-1.4709443147476806,0.004169764290520809,-1.0024037082567858,0.11650649052691008,0.6473160867998901,0.3727576482609456,0.999272910795124,-0.8431226178301375,0.840451989471373,0.6836194718477813,0.5291294767144288,-0.025620166412439672,0.02016656916857641,-0.6616335448403028,-0.12486783847942097,0.029156435234207887,-0.2599138884472119,0.09135291180687266,-0.2585837899809466,-1.0227114391823369,0.06838955072717878,-0.48123657689808613,-0.7868596130911368,-0.45564706718542797,0.05461279584231109,-0.9005863083036377,-0.48050329203397785,-0.7979440736846475,0.3486347585943594,-0.2660884588703116,0.05933509842662239,-0.5222371359221145,-0.8661738343224807,-0.7036010283832351,0.8855616335604564,0.7602641421920697,-0.36907663772834165,0.43141538921835876,-0.5755781443895783,0.6551891285036061,-0.11201484547330771,-0.636321089135315,-0.5864669452922243,-0.4650566291280775,0.1851904839733498,-0.5956501911265284,-1.160665311057403,0.3294202644570397,-0.9439859109844085,-0.6297314160778039,-0.3571291491756987,0.11386355965546087,-0.8064083806641282,0.2705428021940025,0.3209238699656283,-0.9547621615979208,-0.12295514774659266,-0.06527745928332634,-0.36138476681335263,0.20231642020399232,-0.37581186807359296,-0.5576137055441126,-0.5387659709836193,-0.6747554247566077,0.5842410203918931,-0.07081235282812676,0.4043314092981201,-0.6867696452079425,-0.5267812987178665,0.10151351653874487,-1.1968415066986047,0.00782813439688318,-0.03614659069665989,-0.49798310915242205,-0.7702972549862982,-0.24448232987227897,-0.7411633857144286,0.21073761456070145,-0.42765563429108866,0.2468621128509815,-0.538691449805391,0.24708165816581057,0.29056066984640794,1.1534936538424374,-0.6435069585351219,0.2646980786198827,0.2165067244934878,0.8942289604288715,-0.7585314842204849,0.2698871992767298,0.22622662151846426,0.8205293216647107,-0.33759803411896766,0.617743950812217,-0.4994227371816616,-0.5518351753461143,-0.215787365760916,0.5836443067232344,0.34278155835254953,0.3388601334857746,-0.3022383132171997,-0.38317897868512224,0.6760232256813631,-0.9285410507007851,0.4698467917844696,-0.1643180043884141,-0.15880251013184749,0.3152215527886381,0.6419164315853206,0.10981197178605275,-0.08052171130301448,-0.2757400216273426,1.2803369628196564,0.2044638755616281,0.3465076451388837,-0.7586551783372089,0.40071902218135547,0.28581448640714047,-0.912719744198488,-0.8979801362670382,-0.17292934213767458,-0.6516700405293656,0.12198148980346862,0.41646306346678374,1.0217873068189303,0.09250878095889607,0.011799368148832453,-0.17165220638053844,-0.2942325476517418,0.4910428471474288,-0.5789140564376865,0.5585596704753899,-0.6902416568276624,0.09272679972363781,-0.5085276920550198,0.19243779978456182,-0.5694062945267564,-0.6405255422905175,0.5253596977776721,0.4429952830122591,0.9792107068736836,0.3364447517610438,0.3482523118006526,-0.7424912268249554,-0.7706217999974666,-0.5786732383834629,0.9911325861639905,-0.4093888940720155,0.6349708163491165,-0.07774238500579767,0.1333976046685339,0.32664431772795205,0.7022869469743837,0.8995011504099942,0.5879858028195029,0.18272832374308243,0.6145896785738318,-0.17811837774397296,-0.3398159418847018,-1.1720217279082816,0.4590320742918749,0.22718936211186555,-0.3004335406910456,-0.3534234214752843,-0.16393959068578054,-0.22108737614266644,0.1474097242289971,0.21648657287730272,0.04537367455718109,-0.28645252754196576,0.9804080335051117,0.4012852895558556,0.5910486062286242,-0.6119790738661627,-0.2742033410609534,-0.4081447857780563,0.8611587582928674,0.520928752772179,0.4831380320366941,0.36264773963041214,-0.046992524305205556,-0.07975281122154947,0.10525244072170235,0.7369163849874604,0.583480891758551,-0.7068795706457136,0.8828927462231839,0.3881076734227139,-0.7843246057759715,-0.3761595189385324,-0.17538683732523996,-0.6651205141922881,0.894112608544598,-0.4409834531046471,0.19749210307636914,0.5140383506019386,-0.19598825644277032,-0.623460517242048,0.8316265618129958,-0.6221843179722142,0.639226612119969,0.6116756196823796,-0.9720939604586532,-0.7295982798453198,-0.42868488069087973,0.8368651065468206,0.9291214414096565,0.6895572492752596,-0.00682274656860999,0.4657079268565154,-0.00884216324559425,1.3437692094305658,-0.35362075812342786,0.7922473360965392,0.1903126599607573,0.4104058798209004,0.22912035589401958,0.08441509269001982,0.2744241952095852,-0.5519045425197543,-0.37217804564252766,-0.9835344130404552,0.16169809782382563,-0.9467528110202382,0.7784938503466431,0.28823671713079857,0.1407527095733089,-0.553098244099546,-0.35169683459883677,0.9286338876379163,-0.7740356729288678,0.3866439429134257,-0.31993814983858654,-0.001100584883416452,-0.4926358725740232,0.5531476881775631,0.9897264344088934,0.2028897865974464,-0.2895948666600431,-0.18681650904269426,0.9200161809943728,0.053673280021376224,0.3209170499523796,0.07411291267912547,0.9617514554329606,-0.1049412660949112,0.083766076215787,1.064198333383187,-0.19240799557542673,0.733577768186555,0.8548188002240228,-0.5675085722827499,-0.7316325586215465,0.5261602612154712,-0.5179543841369723,-0.46897321462144315,0.9859215270833863,-0.5263425736877687,-0.5460036785798226,-0.7314188860552013,0.4124183629008563,-0.8632893406777201,-0.6178592949126795,0.9080792762325093,0.9032266627942026,-0.5378766763220566,0.49184441552730496,0.5275787767213289,-0.41285013357261025,1.1352161957497757,-0.35737090192640836,0.9332028520344753,0.6825676691091286,-0.07546547211220866,1.1413892220938218,0.10664711630220951,0.40065728127515937,0.4872246990342173,0.899563888250601,0.8357354033415825,-0.17220617943485944,-0.12438726147609558,-0.7656216540622717,0.8312256389632148,0.09486699915438342,-0.7197047583145988,-0.6487181589607551,0.5988473421085923,-0.979843588483245,0.32792553450907463,-0.2420955289136427,-0.394715706432025,-0.28663271535125534,0.23785526285348385,0.45694290863053816,-0.5366184715758706,-0.29138123345022854,1.023654519712715,-0.42013747215315855,-0.5279525907004549,0.8743397791127074,0.0514399250973052,0.010911923052514701,0.04330229357469769,1.059955950878632,0.5119475529668752,0.7585064291877395,0.46228624799789864,0.6139299444461648,-0.3114447456742016,-0.22199042460991053,0.3714103603969233,-0.8496386155293778,-0.9594741254885231,0.9160845148804408,-0.12793757427524338,-0.7513889514577632,-0.26613150511702516,-0.5925025242530856,-0.7571421258150711,0.8220478530765862,-0.6632554031404356,0.1108687346225161,0.04445415853263728,0.22210874827057583,-0.17896783225020715,0.7023490015109298,-0.9286238015182262,0.17478078131189662,-0.7532505630919253,0.4953562338706602,-0.2271482504910676,-0.9037122941198235,-0.026924253789775917,-0.5721999340695164,-0.028382820078674566,0.41745604841191813,0.5074953932155756,0.36846164184708946,0.19220010301255436,0.47601729498295714,0.3936191409357888],[-0.8148270783976818,-0.4994685697963904,0.19607235157333372,-0.24972740130883617,-0.1553505943473462,0.01617856096522502,0.26614163055198237,-0.8382318902576255,-0.28391144822690983,0.1570371988503955,-0.23514104596640548,0.9770555376465507,0.25863922043713505,0.25201860958001376,0.9098197963261104,-0.23021592657908033,0.9647081548224815,0.0812282363824728,-0.2370778872107365,0.23091988398147426,0.8821462586046908,-0.8469411920293287,0.5661535920382968,0.07121315312637956,-0.1486064332646254,-0.27801632115788255,-0.12645204697856952,-0.7750121234362265,0.8041619345678616,-0.6253471494908766,0.9591526056469545,0.5851157602946081,0.4478374280942219,-0.24097180462064785,-0.4206390650085723,-0.40586163512097706,0.5935911096699904,0.8491319015801245,0.3492297947208878,-0.3590941063593161,-0.0339806765982316,-0.359751848907582,-1.01927018066655,-0.19326571040409546,0.2692089017463806,0.8899639247567542,0.4823647908137342,0.5062117066962794,0.41039644402848835,0.8866648349988816,0.39804065693799007,0.011894622719722397,-0.058543823282064957,-0.6446626223264761,-0.7328445518635164,0.9645380399109394,0.2428635376754039,-0.3587647432984915,-0.4767041101711259,-0.438482225560486,-0.8807615193562938,0.29018830862252454,0.08076694026215657,0.12382775279816359,0.19754922976789802,0.2029529552488286,-0.58048387762864,0.43105338973323837,-0.8923687798809437,0.4058589101147661,0.05657960202211321,-0.25431416843315696,-0.7849409986432079,-0.06676394196106995,-0.5893985530962336,-0.3432472527298214,-0.16953727026455093,-0.4181573938756029,-0.9689717269184743,0.5647979738419759,-0.8861405352770458,0.3073070479526925,-0.28134546551758755,-0.6229149708921723,-0.13600417634173376,0.14499982995549457,-0.8465732935389456,-0.8096600403572812,-0.2404302182247675,0.5447868784557223,-0.2665937218182919,0.31563000983708717,0.9065595975415248,-1.0226043926199135,-0.5730895106930032,-0.28177850576940533,-0.39442887732813325,-0.49935771218545755,-0.6149722482135844,-1.1287024098159335,-0.8112481750210951,-0.8669079448502649,0.5041980563008949,0.5105479393878268,0.4543750421636511,0.7215541359245486,-0.6996945520216116,0.5275526395500643,0.7620599675769726,0.6536191422210519,0.3980125584690807,0.6302404491154489,-0.4786509362275204,-0.3106080741166437,0.18785633738003235,-0.18644912645459769,-0.46451089541400864,0.953584031330155,-0.4167159273117648,0.7179729989391075,-0.7546825660337108,0.41758646485407863,-0.018913107782032017,0.04418722685929633,-0.4169484807576646,-0.16065666845599505,0.28807046719885526,0.4605091505052879,0.016330693215684585,-0.9656896009399168,-0.46822060307917307,-0.7153537818538873,-0.8862348772711179,0.7596041840285209,0.33082798431202665,0.5597150688115203,-0.8631763902232603,-0.43078298674878024,-0.7325062004663009,-0.4948855973877091,-1.0036598915665706,0.39960067800522947,-0.37714376527830895,-0.3277901489895099,-0.8397126022437589,-0.8398941216820707,-0.9356064932337095,0.20551043698927063,-0.8104738745971648,-0.39255216955040934,-0.6402994826943662,-0.5516548661915989,0.08678112356450388,0.350458925653258,0.7693601239704341,-0.5442833760562195,-0.44967156031085653,0.0836251220407288,-0.1349717595888544,-0.2109387045074763,-0.07380347952163792,0.5461684486815054,0.6474383355660428,-0.3013955192642113,-0.5237981100796566,-0.9137541546083041,-0.7773215188629506,-0.5824744114177998,0.41288829443988373,-0.7010212233313672,-0.9284547320443206,-0.8880596889849821,-0.6825222539667871,-0.7443279659819922,0.08448253149137076,-0.8125476228943206,-0.6478634837039018,-0.6440658214867522,0.04892732540668774,0.5260139423439295,0.8306974526897771,-0.4255689546621662,0.30654764685840746,-0.7500388773322499,-1.2182111938231823,-0.5666798446093024,-0.6356872337912767,-0.13400453182128752,-0.6643432337475258,0.6608738258425056,0.838286934773955,0.7337142367657,-0.650916275349878,0.8083404520508555,-0.38042348739743925,0.7037990552688638,-0.9380654087931474,-0.9506308050443572,0.17332697790708254,0.710912964960115,-0.9544481434656811,0.9504061024960644,1.1453675827204082,-0.5844655947132775,0.3644141936399982,0.21938120198545427,-0.16064098370833285,-0.9738065211338158,-0.19316049285087653,0.02633762860914833,0.044143614960374465,-1.6388719745173055,-1.0525264695686913,-0.3417096101534263,-1.1036524083718122,-0.6915233672845533,-0.5646012343744604,-0.683820144750787,-0.06906735018537347,1.2383153228569495,0.14162143650176331,0.8134175615486647,-0.7072239548117234,0.5289805681887777,-0.8565848185696778,-0.9544961875145886,-0.42718492084176946,-0.7502638937363244,-0.550225098339966,-0.5599999950833631,0.9141296292694494,0.5635328440141484,-0.13355602891520235,-0.45655894193931496,0.09557602319119674,-0.7080741599500041,-0.7831874995261345,-1.2304997963532782,-1.6672199390955427,-1.6329748585806623,-1.2166267138166333,-0.1358760977420499,-0.3015341881475388,-0.09186353595946833,-0.6914325323893532,0.42580618323059716,0.013428480953567056,0.9838657025681902,0.24009035824139147,-0.32462542354038443,-0.5377205498548903,-0.6271308412931312,0.6947372856967703,0.9087896916131305,0.6423882438860895,0.3455729416130164,0.0017598067419386004,-0.16875638158918402,-0.7066858571592644,-0.4832684519817101,0.3500874613176381,0.2327392761482293,0.9110311019533311,0.22796225268302714,0.22174632072076148,-0.8685915275714661,-1.6180312814009092,-1.8577998236820361,-1.2718474870237302,0.09520896922516987,-0.32274938074901643,-0.3739142624186916,-0.6691927724175647,0.6340309948265541,-0.5841118347801901,0.2599571633550329,0.8927411107411197,0.0024665249844094237,0.7602125027005054,-0.1744836800500348,0.22275401505670064,0.03164723090331629,0.13334597286812655,-0.17551122848535117,-0.7367320988795448,0.1262382854430622,0.2165232435076191,0.9485322441447376,-0.13795086274229296,1.0169976607326845,-0.043712187535726185,0.2679904663538938,1.5466654845261356,0.12905364913320463,-1.4593914886034713,-0.5979781161676174,-0.08917535024082573,-0.15066399549223375,-1.1300844822210987,-0.52337149288463,0.8340342246566603,-0.6856580711598927,0.13395510637851882,0.7551087889138077,-0.8387019552409251,-0.2842976030613813,-0.06179345609334501,-0.31514901942607826,0.7507483982587085,0.7446037387670146,0.34684419723002297,-0.06540287386926835,-0.5083664248464591,-0.9170920290697836,0.7350739861616512,0.14935694692779306,-0.17713468155428638,-0.6804491760199893,0.411317296938102,1.8804409217600524,0.8142947204148043,0.9532547609169099,-0.31576422377994734,0.45191309636196086,0.6754619771994402,-0.14617967511136581,0.019099809640109065,0.45604537699542935,-0.5722934521482617,-0.5143154818026066,0.3979148056772168,-0.050398062931647634,0.805130216130048,0.7691959263168204,0.5000076393364344,0.7025259607391822,-0.48464535159017275,-0.9752210762728161,0.3338039941534715,-0.640609230862991,0.18745186510699569,0.41746256136861587,0.7320902787822158,0.05070897976818438,0.8330346822495998,0.9141104446610909,-0.26333068533170667,-0.09513386731936133,1.5848223802252435,1.4740200524862574,1.2075928224641435,-0.8253545034654939,0.3195062202463638,0.1028096798697374,-0.258558544229985,0.10165348303201087,0.4947103486198201,0.2449206995523844,-0.616712448090016,0.4298372134498743,-0.15661144741197996,0.10575205213056295,-0.19419210458288283,0.43984138825388197,0.6081834893600494,-0.0772910610838332,-0.39082634628350216,0.011314979404081315,0.9032997197573863,-0.6006748464510866,0.8661134551907387,-0.16211926223150072,-0.9868693690300511,0.01295770128430352,-0.4150588122476539,0.43015863994091397,1.2358662002795415,0.2687957824802547,1.0696639643416221,-0.1441075329887165,0.4731517955718731,0.23383937771493102,0.38889367709764955,0.46511312212585326,0.24516058270063534,0.5783075983246562,0.8338210143280218,1.0358042830328393,-0.3648141638225005,-0.4023676693587139,-0.7861079141505982,0.7464243087358312,0.2741105800659007,-0.09690260861291607,0.4964932013171931,0.393333943878622,-0.33103434498323436,0.4742917581934578,0.33412051734607034,-0.2449909051157566,-0.5647378075874867,0.15545386714182927,0.875888038290154,0.049593377967889034,0.27691996395093904,1.320409219311215,-0.3251851190468962,0.19228293344292507,-0.7416271112464865,1.0597795498527847,-0.270670602262195,0.2932372897432973,0.5344620305451443,-0.42348006685642947,-0.7089175210283775,-0.7564449131819537,0.829866138661606,-0.33759939298856506,0.017701820908126754,-0.22891175107307346,0.7885495248789557,-0.5951351199510396,0.4207974439283698,-0.9214214758756863,-0.44999911408881166,-0.5847224322386755,-1.0536168862794753,0.5822748884567877,-0.32031277962354693,0.45115632846210196,0.2543540577409306,0.1916606832346938,0.7172827942624614,0.7598593478645778,0.16016529861973736,0.18966514322963496,0.42399468771757803,-0.861339571418249,0.8680537224482816,-0.6216234246431959,-0.5526766681926708,0.10838531265633877,0.7142912724874334,0.23408468270681432,0.6705539430523877,-0.39236792152180533,-0.07747937103243664,0.6723939745394515,-0.011422638390552988,0.9660481383801581,0.5620967260167673,-0.6519482373377089,0.500886361595972,-0.8052119745150256,-0.83601894268694,0.4793646872941055,0.5322150944870486,-0.8765733485230004,0.4691841162859119,1.060869175618582,0.19244736208938795,0.5073892989076084,0.33704715615924863,0.09153957759755832,0.48472845787370705,-0.06607180920148979,-0.565515755839021,-0.4327102854148444,-0.08625740590387067,-0.49479010502540705,-0.5351273265332649,0.2785203318173343,-0.7692468373470939,0.35659705395116714,0.17180223656051333,0.07427074882717408,-0.9029494398832073,0.4427894667304344,-0.9649922287359073,-0.43324602772716814,-0.8389891433932014,-0.23929710158488626,-0.3931186150070596,0.8522680633639897,0.5298334863100632,-0.5585687877105429,0.6359469163336282,0.43806399928094814,1.2524958644744144,0.7531966765019866,-0.4864270146379431,-0.17477495642917007,-0.9677140177857504,0.16406906091520876,-0.26769615382343265,0.6590345345263696,-0.9161760641114467,0.04195022104867705,-0.8958249836113451,-0.9717469399893357,-0.524942814620371,0.5812986697606247,-0.5683694845344772,0.30331505343283005,0.7643702594394866,-0.22835936283974254,0.5697358929137094,0.8259309514869994,0.42440428775514244,-0.776783557549991,-0.09678343648834879,-0.7207573688733371,0.08216684546839065,-0.5845617010957336,0.777840579175703,0.6101752473646731,-0.30045018200628126,-0.09456476452656389,-0.4110682041866384,-0.7848020633948957,-0.4932038008053284,-0.07305759554698173,-0.6544718198737992,0.3253766909708404,-0.9101565688937401,-0.2497084407693845,-0.9521454353763835,0.46851113200102107,0.3769210825364189,-0.8943504149511802,0.6320021617913154,0.7059698005548397,0.9238162398324256,-0.6094248701657695,-0.20965177938228355,-0.5213238232839897,-0.37247032062339863,-0.5422324902313851,0.2884490113193133,-0.00009114192999037514,0.5197080881291127,0.07326192948236727,-0.6367018088187382,-0.061333578622353245,-0.09954799719822088,0.6680899532311753,-1.7088722953060431,-0.07910822834633567,-0.0032810721218802727,-1.3405330282040497,0.5091025585832761,-0.8948833784280867,0.13100076619654155,-0.7430315733743205,-0.15406152654573735,0.8927525936559667,-0.3284197052444462,0.021664492269298737,0.4203222771160111,-0.3190759973723378,-0.3927349102366866,0.010022230033464235,0.41402257082744226,0.5073810455809166,0.14717218311758137,0.09527468378683025,-0.8076099796127253,-0.7653927342473622,0.41670769817156533,0.5686707012322705,-0.4645681090206585,1.0369623565870065,0.0021420030824854234,0.3961824939561059,-1.4939889256615142,-0.46033820673443254,-0.2511132184844646,-1.2517527944152675,-0.2445713255047795,0.533821850373072,-0.1760269145313251,-0.47854226587991233,0.45028895772405036,-0.3443141294656624,-0.49375797897014684,0.8296078752187697,-0.08166865586106595,0.40652088423176436,-0.3904724816508831,0.5680317545880195,-0.8226507196925213,0.9444846146710396,-0.7025919126425787,0.417573227709185,0.638196513829129,-0.5817478059233636,-0.6797644304888589,-0.12195803971633681,0.10034695113374409,-0.3063604462608513,0.4890170355125142,-0.38425571777250844,0.5788001767726717,-0.8807227444326331,-0.9755152631081736,0.1740115683901248,0.8756890711406778,-0.39841880678603936,-0.6447265157887445,-0.19020264861336048,0.3965887050148677,0.015672667811878562,0.8320488451496348,-0.7510246658765992,-0.3679047834731649,-0.11282639787165656,0.03589682949399519,0.6155033463435423,0.5406225951209119,-0.7434128753924316,-0.15922486875184835,-1.0155072060277304,0.6820370225244274,0.15588978618015786,-1.3760159418545073,0.6043620275842122,-0.15272272451603924,-0.22877616046882945,-0.00013645203990571858,0.6573203512933543,0.29787096416761544,0.9399646791708709,-0.8271775996001038,0.29593554712729325,0.5471768001411068,0.861004131051706,-0.3560498943162119,-0.20563615337760513,-0.5607350142064024,-0.5258654993973515,-0.20546317896935432,-0.512382264647944,-0.5800824367049215,-0.8670341772760316,0.617255126695513,-0.20613820236183508,0.6351880172297812,0.19374037816430914,0.7336693718768549,-0.4636531904449324,0.8562736053552342,-1.2161834439505221,-0.7225622788327107,-0.926327037955258,0.7458323785454206,-0.3904273617423313,0.395523288504718,0.43931295703928586,0.4641996461492768,-0.3041891301724885,-0.6043809240870648,-0.37213117760440095,0.28411973150454084,-0.5479871528872798,0.469058193643755,-0.2987299348754599,-0.8508087221426979,-0.45375687932208625,0.7734373422896255,-0.909972876692666,-0.0069505277435414166,0.9128098999134214,-0.6057385949102255,0.021251481650912,-0.8732717175109971,-0.3860714450400681,0.01176099193292569,-0.919753607634332,0.5073737739502003,-0.7755024561724766,0.17416453546745153,-0.49419851456255404,-0.9196310420696554,0.6072928176369726,-0.09185254544853662,-0.3117789023352896,0.8958005540556282,-0.025388825401266135,0.8948391506677087,-0.8918524226422225,-0.04926383549730529,0.8017168671007593,-0.6133055273432243,-0.6345406728074815,0.4558584105749792,-0.6346865758047476,0.928939999799416,0.39674277362219634,0.46949836172040893,0.8373669304714318,0.5875920784334568,-0.18087382869113675,0.9903739321475497,-0.26612548592540497,0.4222174612068778,0.6572235788048073,-0.31566748961012553,0.5367188063434727,0.19458441755205685,-0.42244188074362804,-1.2461574989949877,0.5429224343873741,-0.6598491729647323,-0.7224185948826195,0.5408846488120078,-0.5794176961044113,-0.893279385613145,0.12931954983058114,-0.5153497178800057,-0.9755682320444989,0.3976186118997539,-0.7688839809827055,0.30799951728592895,-0.8076563703183117,0.004240300946059881,-0.9818249968879996,0.5151848396984727,-0.43063973732392946,-0.7965594614254906,0.01277120902893683,0.8272235504256001,-0.43316732259509527,-0.35364733095912604,0.08222908828202,0.7260739733476635,-1.0972952058296777,-0.8608193985233021,-0.35156204182027956,0.45074708814720427,0.6956646111735095,0.08303014882101634,-1.0017245657527583,0.07525973600708295,-0.7821552946871425,0.5034695520687829,0.19729092333198534,0.44701271532780157,-0.2207496958531862,-0.4408504568971389,-0.6771215605761101,-0.3688862552407032,-1.0214927061327381,0.3347148089652763,-0.5666364606974229,-1.004490274512729,-0.41030914658296314,0.5608443905901114,-0.45437054551183476,-0.876905794247896,0.2845135045232303,0.8721061938197613,0.9323890423002493,-0.7027590309145595,0.4355864963115412,0.1741901581296156,0.17882566715740011,-0.5592783751080646,0.7938649669246717,-0.7573337921910761,0.01836065474760782,-0.8635565306318992,0.845432266846665,-0.5899435879791216,-0.08528453050516885,-0.8677451988319701,-0.9216077301540347,0.2514769689640701,0.41932986539193073,0.7090984687989409,0.06930090372889282,-0.6630705814080858,0.3168207330625499,0.884388508034143,-0.24856972437679511],[0.732992699848468,-0.6655886067746798,-0.2646632329301173,-0.9107926885768648,-0.025308297539176065,-0.9828259622839427,-0.23158176893398116,-0.26232067244360335,-0.11072695489819502,0.5864995477997871,0.4981608726919861,-0.6268812800188363,-0.14921220698294596,0.8928434802186263,-0.6150840812232723,-0.9181322262315225,-0.3814899987362055,-0.5438358381287721,0.4132349569116025,0.010392527430680495,0.9230178379755757,-0.5668434168887305,0.06037793951297484,-0.8645375123341917,-0.7758933243804033,-0.35530332915862073,0.20438867582336576,0.6731027042826373,-0.6088047846469294,0.5320209542436473,-0.840027853385828,0.7206631612064173,0.4437004920846082,0.21021427823840075,-0.4579906880219159,0.6593761019129522,0.2728759927500807,-0.5141379524918266,-0.3427236183913877,-0.6370188566529847,-0.30983445148307764,0.11853495572975878,-0.0617105846456791,-0.491042515480578,-0.021191928850137546,-0.43715312027886727,-0.6176414979362376,0.44165743928923434,0.6124157074740707,0.9927214493792628,0.03481373149125477,0.08204087589084016,-0.5313510945313055,0.43632426107244937,0.14296364843181467,-0.4051441828367608,0.246743064943769,-0.3618842515342453,-0.4782677969307906,0.272095683517353,0.5770052315734471,0.6380432220606953,0.6445297911872319,0.5769538801191821,0.8359608880269017,0.385664618266295,-0.6960042924559579,-0.6212773840209078,-0.31110558561503454,0.028309754759366368,0.057075279517077776,0.3345064241098934,0.5708906476676933,0.6278982990174099,-0.4086893165154733,-0.25978294702748317,0.7694897041433939,0.12517504832867313,-0.8377617536106426,0.4698992463620291,-0.9201715569226984,-0.37285409446681184,0.4947372775814811,-0.015215392613674368,-0.33872838057628885,-0.5883191656314165,0.627733013940122,-0.9268712242915982,-0.5960500284425083,0.3289664190939091,-0.44157038359594586,-0.6158111665127369,-0.9538605329265987,-0.0008434577589047501,-0.6432010750448253,-0.8932273954788045,0.26735717743719384,0.0788113385793122,0.27493435844036895,-0.5308827172896536,-0.9682025628671348,-0.35304846272976464,-0.14477133495958955,0.9244213472960557,-0.7497073924494121,0.8549471878756935,0.0774550344086367,0.24499821103284683,-0.6637597577691856,-0.6997360445368291,0.37013182854257265,-0.036621309697879266,0.17779143650898413,-0.3820216760526402,0.33743724639376155,-0.6614078096655606,0.5145918616115336,-0.8929125711096662,-0.7595775098338344,-0.9134138142692232,-0.17795621582893165,-0.2513115485362681,-0.5289552818318148,0.06859364867456949,0.6751403073856753,-0.5316861064024551,-0.34600683032577506,0.46396419665502836,-1.0679564126702517,-0.5730919866792399,-0.17186973501527922,-0.5871547525428105,0.08568183920678354,0.16691719884698958,-0.09959570761291577,0.3838836373364697,-0.7427653887181542,-0.035120781888797636,0.04040805960772631,0.23643169558721439,-0.08226528042664434,-0.6297665527039823,0.9264141453438792,-0.4340312948484377,0.0924873986845942,-0.7032696707254964,-1.010079469122439,-0.8749260331783226,0.33068818473812717,-0.19684669619237682,0.6381263523409347,-0.7384555290408541,-1.1939480247319154,-0.6019112491873699,-0.8078128903929117,0.11423315551306418,-0.5858390319761398,-0.09182494319499462,0.35531110326005827,0.2995582555810354,-0.4452222456224556,0.049309034332425034,0.1180055803905094,0.10975067177460616,-0.20045602274444296,-0.42372358987382136,-0.5092309578689393,0.826704925769688,-0.6319399644355973,0.20776401116059584,0.9107661302237825,-0.8467451055688731,0.0678232694947114,0.5863487409911289,0.9797644241251623,0.05977599486361198,0.5646279673907363,-0.7012396641742017,-0.9448431451707792,0.05975952359503442,0.16259250967020739,-1.0222990682413708,-1.0846027045019877,-1.4328258842816406,-1.4210955380942145,-0.8099609120866473,0.4216690022380918,0.5408654253810237,0.25340339930578504,-0.06739258673196787,-0.13714160805984885,-0.6771585940828952,0.22413671758360942,-0.6630390398989037,0.31080463056259244,0.973549643050322,-0.26424148453949803,0.47011789968024215,-0.698168399870272,0.7459395860435366,0.4609344025277393,0.123595346141119,0.7679648574821833,0.12050584532759816,-0.0872614862937491,0.7246523264354319,-0.8329215934026198,0.6946195257878948,-0.9179870639686458,-0.7728371649012525,-0.1271118699751147,-1.759693155534066,-0.9960768031933583,0.11745637071542385,-0.14220653112364906,0.498762415917443,0.10057120979834387,-0.32826997323006674,0.6091111718305093,-0.7177195465885535,-0.240815735635829,-0.6354594145221012,0.1454637215898612,-0.12849697079612854,0.973301637061635,-0.15260364379073668,0.6475098153281243,0.26245883845351403,-0.10380113605364129,-0.03132155935729626,-0.5956337557113224,-0.5085606426389779,-0.1634351757014504,0.8654608982708414,0.35445418352397084,0.43249107646389034,0.41802835062476007,0.186418114553395,-1.4359526489467478,-0.6688190176178217,0.059983899032833236,-0.6457677979955098,0.5537336315404479,-0.43043966390967575,0.640312611988991,-0.18623941378879755,0.7490164901637941,0.5799257432343015,-0.2823517560825174,0.06078233464546974,-0.2709045251821762,0.012592624141799359,-0.9050216588847922,0.6937158949361573,1.0145937349234797,-0.6633033470083987,-0.012774918178465114,0.07709580974157086,1.0034991705855782,0.30939769368873576,0.5233690870013942,-0.38438683703671317,0.7161419115130029,0.2054476691384726,-0.08899080299117408,0.7590392227382586,-1.2016198472069335,-0.5429441876287247,-0.19402306415244142,-0.42453033736059276,0.3167589816462726,0.3498340057614411,-0.5416420284433867,0.8513069684782303,-0.8246213126282157,-0.32839236996437915,-0.666099930992728,-0.7277840193186189,0.29495386610152846,-0.6354967339661016,-0.6210433502963045,-0.3344413474496736,0.9798354382638991,0.8225498769516877,-0.5300374456252726,0.6996939632808661,-0.6027108365902768,0.007563199107628283,-0.7839924748606213,0.7989260066913892,0.9802583386395156,-0.02931384890407513,-0.37935587579410596,-0.937773087301144,-0.8746418997136054,-0.5347238736632816,-1.244899751122646,-0.2435951972170681,0.007832175207027574,0.595991971989902,-0.3891297872926723,0.6405255582243251,-0.5211043192233012,0.2878906581648753,0.42367489432474337,-0.25189093701365883,0.8575157482040632,-0.3616437282136099,0.9857320537134705,-0.22171208959474187,0.34540373096965715,0.003985358880108788,1.0671948745961248,1.1839585354567819,1.0895308747232515,-0.0927541773205695,0.8123314752762543,0.26375149624765926,1.1646171474010552,1.28383620277228,0.11420892278623791,0.08240295259083033,-0.4813473878333225,-0.16516571133980604,-0.8624400944774299,0.665352748850288,0.7189142027257831,-0.437898560080433,0.2455151577936098,0.3761335071664231,0.4028408335270386,0.33379688974129307,-1.0212529236426782,0.6896867217355745,0.811255168355093,-0.7641592919739773,0.11297704658784703,-0.0819991341125589,-0.3134043325389149,-0.09462322536046569,-0.09045036433413453,-0.30882519556454546,-0.4826903446460278,